⎡   -0.923923    0.128487   -0.668398    0.955207    0.877727   0.344756    0.560507    -0.103895   -0.896522    0.397988    -0.81738    -0.356519   -0.326266    0.626544   0.434317    0.643354   -0.953621    0.833684  -0.0663813   -0.929589    0.791327    0.156118   -0.176909  -0.765797    0.536858   0.134837   0.856328   -0.277647   0.692305   -0.463606 -0.00539285    0.238449  -0.0162718   -0.606333    0.567289   -0.820511    0.301096   -0.858301    -0.6364    -0.56432   -0.724475  -0.771609    0.658819   -0.538836   0.645297   -0.233551    0.498183   0.379731  -0.226029    0.805486     -0.89405    -0.809787     0.669012    0.964313   -0.138589   -0.108913  -0.554828   0.363959  -0.0749242   -0.582228   -0.06425   0.573604  -0.197675    0.704151  -0.537865   -0.255165   -0.923966    0.355875  -0.0172845   -0.692386 -0.0978479  0.00503445    0.232695    0.694376 -0.0480304    0.661183    0.0500294   -0.622725   -0.320749  -0.297846   -0.646673   -0.100375     0.72017     0.95262    -0.74132    -0.80076   -0.783765   -0.362248 -0.0267975     0.688381    -0.847664  -0.125014    0.703888 0.000215411   -0.690431    0.912242    -0.803234   -0.745312   -0.264141   -0.455727    0.831782   -0.127056  0.0879717 -0.0401649   0.161173    0.682472  -0.0174485     0.730529   0.293214    0.822769    0.556011   0.985601   0.0754422  -0.873028    0.77115   0.564664    0.245608  -0.0363817    0.538818 -0.0965233   0.406732   -0.725694     0.326534    -0.78457     0.656576    0.988232   0.602254   -0.509265   0.0728706     0.736776  -0.789433   -0.228805    -0.557216   0.581276    0.582403    0.583504    -0.492522    0.720717   -0.037958   0.262489    0.327657  -0.0431874   -0.59582    -0.97573     0.760836    0.411511   -0.841344    0.930775    0.567539    0.928929     0.350176 0.000219584   -0.400153   -0.14191   -0.204435    0.900684   -0.629085    0.36925  -0.446186    0.534905  -0.164139   -0.298293   -0.429609    0.730089    -0.11073  0.00185513   -0.722699   -0.129987  -0.474629   -0.539733     0.50939    0.396267   -0.764519    0.592659    0.808698   -0.200574    0.557797  -0.112688    0.480422    0.818896   -0.470769 -0.00725454   -0.508164  -0.341356    0.754448    -0.25538    0.126324     0.587257   -0.314232 -0.000771403   -0.190624  -0.531514   0.184369  -0.160819    -0.272067    0.372625    0.393423     0.190591   -0.666653   -0.715198    -0.405013    0.822966    -0.954761    0.599015   -0.514809     0.76222   -0.686543    0.96888    0.901554     0.41131  -0.0948828    0.210248   0.813519   0.941164     0.30678   -0.966136   -0.365271    0.248843   0.680746    -0.674268    -0.461151   -0.134157   -0.820462    0.204325 -0.0824168    -0.71737  -0.341909    0.815696   -0.518275   0.387716    0.869724  -0.0834307   -0.132801 0.00916767    0.465862  -0.340468   -0.543108  -0.700643     0.108391    0.494657   0.0966083   -0.662918    0.561672   -0.259435   0.0587744    0.479138   -0.284814   -0.297159   -0.576115    0.0375489     0.375893     0.47203     0.40789    -0.77051  -0.159039    0.989766   0.0660908   -0.206529 -0.0712574   -0.640463   -0.107056     0.629907    0.792776  -0.334112   0.396315     0.923663    -0.69984 -0.0582432   0.717246   -0.331452    0.309441   -0.646716  -0.673374  -0.0552882   0.122848   -0.218542   -0.388422    0.552084   0.0103651    0.257951   -0.596902   -0.595936    0.542326   -0.803506    0.295524   -0.52124    0.403602     0.332636     0.152607    -0.645457    0.997074    0.440795   -0.477881  -0.644426  -0.0719021    0.768535   -0.677891   -0.821878    0.97235     0.188409     0.58163    0.743032    -0.61916    0.514212   0.921795    0.899587   -0.614209    -0.497464    0.428543   -0.029165    -0.550026    -0.63306    0.541165    0.791863    0.632219   0.0476675     0.937363     0.243668     0.919236   0.930514    0.357352    0.365493  -0.960953    0.679802    -0.237917   -0.771348   -0.147115 -0.00272363    0.751838    0.345024    -0.52456   0.970133   0.344402   -0.790915     0.682264   -0.842234    0.524617   -0.594191   -0.421294    0.833828    0.193738    0.918698    0.655933   0.180014   -0.852651   -0.404523  -0.386255    0.541115    0.101791    0.186028    0.611592    -0.297142    0.163224   -0.355643  -0.589983    -0.739225 -0.0659372   -0.284762  -0.0208196   -0.378729    0.810593     0.317095    0.984632   0.934909   0.554888     0.701644    -0.545182  -0.966177   0.445333      0.1187   -0.896351    0.602959    0.797397  -0.458986  -0.755226  -0.593305    0.171041     0.61773   -0.305745  -0.462992   -0.794863    0.440739   0.869407    -0.90898   -0.877977  -0.0330584    0.174199   -0.830885  -0.977355   -0.322464      0.4805    0.230762    0.510173   -0.890214    0.912428    0.787801    0.619947   -0.566623    -0.246685   -0.867425   0.567928    0.652095    0.636913    -0.911136   -0.598325  -0.0692936   -0.903197     0.843644   -0.545337    -0.136525   -0.633742    -0.945921  -0.0613183    0.539508   -0.986748   0.932027     0.441285    0.520558    0.236411  -0.0371237    0.935394 -0.00927448   -0.982246   -0.626907   -0.494488    -0.545989   -0.794774    0.371175    0.945268    0.0963464    0.698979   -0.884879   -0.222059     0.838109    0.359804    0.588887   -0.510532   -0.518825    -0.412286   -0.147752   -0.348345   0.512169 -0.0799098   -0.238335   0.315968    0.661415    0.761183    -0.50419    0.150335    0.819213    0.0948824    0.672416   -0.730302  -0.413943    -0.265535  -0.591463    0.174314   -0.609864   -0.192476   0.0220271   0.0241749    0.559582    0.508902    0.119881     0.391587   0.861696 -0.0788915  -0.332385    -0.582543    0.703612    0.319837    0.153338    0.914245    0.213987    0.73388    0.353487   -0.861408   0.262452 -0.0628554   0.617363   0.779209    0.280544    0.822879   -0.463301   -0.0518418     0.258799   -0.432741    0.479887   -0.476271   -0.875807   -0.465482    0.31377   -0.184684   -0.912129    0.395964    0.596421   -0.195833    0.263603 -0.0753796    0.417587   -0.339852    0.572211   -0.196233   0.647643  -0.732717    0.66908   -0.276988   0.0903618   0.814134    0.746754   -0.579924   -0.374141    0.969508  -0.954084   -0.870915    0.383455    0.464487   0.0157839  -0.173874    0.941131  -0.265869     0.307008    0.745981   -0.246839    0.731265    0.846172    0.347676    0.315172   0.740116   -0.950171   0.0710584  -0.181161     0.751901  -0.916503  -0.0437142   -0.280208     0.169172   -0.497862    0.651126    0.772643   -0.624935    0.829575   -0.453033   0.382401    0.48515   -0.754419   -0.222692   0.766588    0.887882  -0.679959   0.046652    -0.955323     0.13881   -0.967014  -0.358452  -0.353134    -0.273588  -0.343946   0.772145     0.10796     0.398796  -0.848071     0.137361   -0.885975  -0.392146   -0.899851  -0.145285  -0.114104    -0.816401   0.0487914     0.637614    0.585065    -0.973192     0.699146    0.111608    -0.846145    0.826309   -0.840551  0.0719138    0.166474    0.616999   -0.177715   -0.622376   -0.357812  0.0723801     -0.3248    0.42462   -0.420193 -0.0375176   -0.710773    0.599689   -0.560943   -0.810975   0.652191  -0.200695    -0.21204  -0.533452    0.112111   -0.88807   -0.124064    0.959396   0.0341102    0.607137   -0.749904   0.180299    0.307196     0.233956    0.860516    0.126732    0.374971    0.18906    0.754544    0.807119  -0.107329    0.920531 -0.0836538   -0.523722    0.636114  -0.454343    0.435311     0.42294   0.0284113   0.589243   -0.661113  -0.0451952   -0.26085   -0.377349   -0.605603    0.731937    0.317716     0.553022   -0.140606    0.660084   -0.398391  -0.0422822  -0.817187    0.128487   0.0381629    0.929177    0.869769  0.0791525    0.306294   -0.908674  -0.816204    0.938137    -0.357609    0.715355     0.665679   -0.516667   -0.871747   -0.983055   -0.632252    -0.81656   -0.972393    0.0850009    0.307142     0.663461   -0.868755    0.64106   -0.387634   0.395531  -0.822046    0.703503    0.193933    0.839181   -0.570462    0.658864  -0.0495744   0.0695118   0.250904  -0.359073    -0.1798   -0.723965   -0.345637   0.717694   -0.758427    0.837902  -0.813773  0.0907955   -0.883573   -0.857219    -0.41929   -0.687601      0.84416   -0.634387   -0.927276   -0.966712    0.604393   -0.59944   0.738077    0.0110123    0.219972  0.0379891   -0.31665    0.621472  -0.586413  -0.471951    0.514531    0.668447     0.814381   0.0400881  -0.0347704    0.687632    0.841847  -0.638573  -0.609012    0.495684    0.904767   -0.788283  0.0281651    0.593111     0.378765     0.471012   -0.805615 -0.000981271     0.63962    0.824357    0.406586     0.513159  0.0357037     0.169443  -0.0836979    -0.752758    0.734209   0.451096  -0.339302    -0.471047   -0.335298   -0.823132 -0.00974149    -0.58067  -0.780255  -0.0989325    0.494586   0.415922  -0.992459  -0.819938    0.856937  -0.0911764   -0.704106   -0.408914    0.263357    0.220855    0.502237   0.322739   -0.234513     0.422649   -0.647306   -0.173239    0.412735    0.861523    0.172005   -0.913792  0.0978982   -0.253585  -0.0399616  -0.0832072   -0.262538    0.143878    -0.723993    0.402835    0.770605    -0.286551   0.768691   -0.251256    0.766566      0.8185   0.717834   0.955316   -0.954698   -0.475882   -0.159935  -0.300995    0.985253    0.388329  -0.0104648    -0.202297 -0.00739092   -0.633841    0.279346 -0.0100106    -0.7531   -0.548137   -0.124415   -0.391169 ⎤
⎢    -0.40685   -0.710867    0.709407    0.775489  -0.0974839   0.550942     -0.4162    -0.902844    0.545505    0.454822    0.843541   -0.0168456    0.377662    0.979188 0.00803864   -0.890966    -0.34898    0.928895    0.645759   -0.825657   -0.107381   0.0490348    0.105458   0.930068    0.573019   0.363092  0.0484147    0.364558  -0.723714    0.205977  -0.0302123   -0.191882    0.912417    0.926349     0.45813    0.544171   -0.567879   -0.222022  -0.957281    0.926239  -0.0365004  -0.821183    0.628062    0.858686   -0.59205   -0.675572   -0.997608   0.165133 -0.0538787    0.376754    -0.940489    -0.254666     0.569342    0.569653    0.905958    0.248481  -0.332057   0.307082    0.670663    -0.72887   0.808789  -0.702053  -0.558002   0.0165359  -0.152839    0.808884 -0.00898862    -0.35755   0.0046438    0.573555  -0.118094    0.542293    0.888144   -0.717847  -0.651862    0.774009    -0.392161   -0.566808 -0.00616562 -0.0647099   0.0259718    0.851303   -0.265554    0.182963   -0.730273    0.874224   -0.484284    0.796634   0.173693    -0.090262     0.978327  -0.576221   -0.462922 -0.00362617    0.472624   -0.972655    -0.317937   -0.435713    0.800069  -0.0880408    0.969678    0.483742   0.675426    0.17685   0.981355    0.898757   0.0513058    -0.832283  -0.627174  -0.0541607    0.732897  -0.213283    0.601278  -0.428474  -0.301823  -0.766101    0.730828    0.581519     0.70086  -0.321576   0.138085   -0.386701     0.391678    0.274283    -0.814233    0.171631   0.784288    0.251668   -0.439246       -0.639  0.0787688    0.624181     0.582469   0.119056    0.885158   -0.475185     0.772547    0.653998    0.388964   0.461716   -0.163223   -0.741865  0.0994633  -0.0396713     0.176582     -0.7394    0.303415    0.440412    0.744568    0.144235    -0.119448   -0.802703  -0.0276191   0.169276    0.264204     0.41087   -0.344903 -0.0566983   0.709623    0.143498   0.246831    0.661263    0.697186    0.234419    0.171563   -0.866809    0.196123    0.624268  -0.499312    0.454131   -0.518256    0.199574   -0.979633    0.978982    0.573571    0.779746    0.121779   0.509542    0.285566    0.162608    0.888185    0.362373     0.84784  -0.321945   -0.540791    0.161278   -0.640637    -0.921701   -0.672555    -0.278649    0.547234  -0.132616  0.0289037   0.466687    -0.651556    0.859462    0.646576    -0.700068    0.021125   -0.543254    -0.740232   -0.965759    0.0875592    0.459511    0.123071    0.201803   -0.420721   0.210154    0.400067    0.838771    0.475604     -0.9435  -0.443868  -0.477017   -0.565796   -0.782164    0.461968   -0.871443  -0.422018     0.146082    -0.981486    0.674447    -0.70902   -0.329126  -0.741585    0.949557  0.0954969   -0.930985    0.991567   0.282836   -0.470369   -0.838019    0.767017    0.75631   -0.692895  -0.174863   -0.925546  -0.127709    -0.976595   -0.263146   -0.334113     0.10214    0.848892    0.889421   -0.916527   -0.174065   -0.262386    0.555642   -0.813386     0.920677     0.148624   -0.125128    0.432297   -0.444137  0.0110021   0.0674772    0.637887    -0.59777   0.943013   -0.340704    0.990595    -0.861848   -0.909768   0.469997  -0.831312     0.795917   -0.934643  -0.898903   0.382386   -0.448593    0.198635    0.835453  -0.615555   -0.784482   0.270025   -0.824837    0.585634   -0.634402    0.615873    0.221637    0.564297    0.733112   -0.994301   -0.302632    0.942731  -0.186312   -0.247009    -0.290353    -0.768708     0.265933    0.902682    0.715655    0.328357   -0.63827   -0.634848   -0.759273    0.476232    0.350168   0.795341     0.483679   0.0503953   -0.863895   -0.991265   -0.185825  -0.143162  -0.0898499    0.413157     -0.28862   -0.779569    0.773654    -0.304328    0.889102    0.299996    0.754853    0.614315    0.369375    -0.115709    -0.177532   -0.0322163  -0.675823   -0.786449    0.491857   0.385305   -0.534814     0.439732   -0.962368   -0.876158   -0.880881  0.00549734   -0.875073    0.594523  -0.152751  -0.475772    0.122665  -0.00273782   -0.533675    -0.86711   -0.356519    0.352829   -0.436381     0.18375    0.245359    0.920396  -0.763154   -0.283768    0.676581  -0.522948   -0.687445    0.566714     0.17282   -0.873431    -0.688424   -0.492121    0.950112  -0.344799    0.0514513   0.645248   -0.934517   -0.985391      0.3574   -0.140453    -0.488773    0.266776  -0.886525   0.260953     0.266809     0.617783   0.799388   0.339964   -0.552446   -0.612425    0.322808   -0.212368  -0.699468   0.159387  -0.888026    0.366857    0.941657   -0.249424  -0.490089    0.452396   -0.384789   0.048123    0.745719    0.749812   -0.888537   -0.683152    0.129517  0.0714804   -0.489838   -0.529841    0.320861    0.629578  -0.0794219    0.864353    0.572514     0.71649   -0.552199     0.381356   -0.819518  -0.802297     0.74592   -0.831533    -0.843474   -0.490795    0.759352   -0.239077   -0.0443162   -0.982838    -0.191977    0.294462    -0.212484   -0.928302    0.632932   -0.255177  -0.499074     0.592512    0.273446   -0.454197   -0.222667    -0.99902   -0.688162    0.225853    0.416181    0.421729     0.685921   -0.433021    -0.77198   -0.118154     0.392992    0.281581   -0.384605   -0.473503     0.195505    0.965551   -0.074072    -0.14067    0.638678     0.560407    -0.38913   -0.898515   0.369974   0.112223    0.222849   0.638459    0.286092   -0.129371    0.909381  -0.0234365    0.607066     -0.11811   -0.573619   -0.872897  -0.678728    -0.853978  -0.449327    0.325738    0.139643   -0.711502    -0.61685    0.469922  -0.0594389   -0.282573   -0.229732      0.50658  -0.625984   0.832423   0.765569    -0.585644 -0.00163758    0.502514   -0.493613  -0.0549782    0.661403  -0.730109   -0.605185   0.0593556  -0.632019  -0.889101   0.593524  -0.636366   -0.044442   -0.881675    -0.11991    -0.733158       0.4734   -0.535354    0.887191   -0.978166   -0.839545     0.27412  -0.859406    0.998768   -0.855138    0.697867    0.642918   -0.225956    0.861268    0.15413     0.85682    0.470344   -0.914953   -0.838028  -0.500595   0.679004   0.572825   -0.378448    0.282946  -0.619673   -0.347135    0.981749    0.161913   0.0887218    0.95288    0.790813    0.728912   -0.351702    0.504018  -0.984638   -0.500927   0.857386     0.749641    0.801171    0.656794   -0.609625  -0.0162978   -0.555622   -0.619873  -0.651156    0.513238    0.935024   0.720742     0.330736   0.722849     0.58011    0.682368     0.276438   -0.909916   -0.291613   -0.697858   -0.260258    0.774132    0.361953  -0.558639  -0.570257    0.435288    0.940572  -0.653105   0.0246465  -0.890285  -0.246528    -0.961596   -0.554648   -0.791432   0.250809  -0.279358    -0.462627      0.867  -0.713113   -0.767195     0.814785  -0.467845     0.971118  -0.0694688   0.425172    0.596328  -0.356476   0.176133     0.388334   -0.452666      0.19517   -0.970402     0.230415   -0.0920921  -0.0478323     0.282438   -0.116085    0.621431  -0.663014    0.963048   -0.740256    0.194654    0.783267    0.567506   0.945333   -0.469904   0.186804   -0.236483   0.531693    0.917701   -0.473628    0.817443   -0.729991  -0.763965   0.227232    0.764482   0.980684    0.850828   0.312137   -0.378712   -0.733726    0.317279    0.926871   -0.149976  -0.841015   -0.620278    -0.913015    0.393533   -0.458974   -0.754176   0.702808    0.604248    0.266031  0.0434411    0.624837   0.171785     0.28381   -0.586332  -0.889345   -0.105698   -0.249913    0.498874   0.481376    0.200273   -0.883261  -0.895068    0.409953    0.731094    0.648163   -0.348576    -0.756883   -0.180632     0.65812   -0.478843    0.106461  -0.910838    0.359016  -0.0488964   -0.441479   -0.593098   -0.20469     0.13407   -0.270199   0.936112     -0.2788     0.393738    0.540488    0.0779845   -0.904983  -0.0517623    0.974365    0.570073     0.50847     0.64573    -0.863724    0.464676    -0.969139   -0.819916  -0.375829   -0.383852    0.30247  -0.421224  -0.0175485    0.109509    0.304385     0.20825    0.202792    0.199636    0.607845  -0.201904   0.177406  -0.383576    0.857989    0.127744   0.696234     0.43974     0.82405  -0.618034  0.0477628   -0.288685    0.797406    0.385713   -0.214481    -0.416963   -0.286992    0.141604    0.013611   -0.757773  0.0243683   0.103827     0.412656   -0.616074  -0.491305  0.0831903     0.70407   -0.66497  -0.740363   -0.106465    0.837335    -0.674843    0.429113     0.92951    0.952499   -0.900996   -0.15386   0.909658   -0.857146    0.812485    0.751335   0.468941   -0.191194     0.165358   -0.0581032   -0.030248     0.858288   -0.445072  0.00832009    0.827165     0.155849   0.849388    -0.620579     -0.3599      0.89879    -0.87029   0.406539   0.168135     0.592829   -0.469372   -0.158399    0.467579    0.734394   0.173324    0.991951      0.6995   0.495663   0.876586   0.536953    -0.54258   -0.597177    0.796611  -0.0136427   -0.341178   -0.321163   -0.201251   0.341181    0.792879    0.0133505   -0.339778    0.955991    0.620708   -0.955626   -0.212549    0.838749   0.863118   -0.219314    0.784719   -0.230998   -0.350897   -0.856019     0.276895    0.556681   -0.298707    0.0413358  -0.829544    0.585933      0.1622   -0.852813 -0.0366741  -0.418204    0.949139   -0.458203   -0.158171   0.167575    0.125295   -0.297315    -0.41153    -0.171248    0.531317    0.537118   -0.116894    0.69025  -0.628458    0.477505   -0.728717    0.390269 ⎥
⎢    0.525136   -0.796811    0.994742    0.533687   -0.778787  -0.429078   -0.348069     0.334527   -0.807523    0.914376     0.10863    -0.595338  0.00902832   -0.630396   0.453077    0.875472    0.343086    0.195707   -0.472094    0.562553   -0.807571     0.18469   0.0501179  -0.116695    0.946818   0.464396   0.867038     0.38578   0.257206    0.618174  -0.0214983    0.682064   -0.775378    0.683339    -0.67061    0.323165   -0.625584    0.122466  -0.772461    0.564631    0.660743  -0.278027   0.0460361    0.708224  -0.462641    0.534312    0.773666  -0.766444  -0.967763    0.611935     0.182464    -0.817151    -0.924989     0.44795   -0.568162   -0.689872  -0.193581  -0.287578     0.67804   -0.520912  -0.884696   0.717766   0.075039    -0.32849  -0.352979   -0.423124     0.27416   -0.809637    0.585301    0.894767    0.14293  -0.0743816     0.25997    0.683876   0.515379   -0.448384     0.518199   -0.261099    0.847585   0.746258   -0.840431  -0.0632297   -0.924345   0.0493606   -0.238771   -0.168233    -0.11766    0.511988   0.817148   -0.0749563    -0.710876   0.968275    0.323245     0.15235   -0.347511   -0.748334     0.920697   -0.899585   -0.201861   -0.412359    0.339724   -0.826862   0.842332  -0.904447   0.641957   -0.765546   -0.818929    -0.372265   0.137741   -0.617399    0.723971  -0.840508    0.922039  -0.158445   0.191182   0.785427  -0.0627184  -0.0288061   -0.125558   0.670496  0.0314511  -0.0917324     -0.66383   -0.665529     0.444428    0.710256  -0.680852   -0.393138   -0.339509     0.204894  -0.775537   -0.493086     0.068993   0.165805   0.0717478    0.609723    -0.712088   0.0427176   -0.648281  -0.481115   -0.698228    0.786799  -0.937067   -0.525754     0.387211     0.66439    0.451079    0.546004   -0.637825    -0.75967     0.909179   -0.642552   -0.530677   0.381269    0.897758    0.558417    0.610937  -0.166637   0.360529    0.157537 -0.0465779    0.873481   -0.326294    0.645032    0.259451   -0.377605   -0.484667     0.87744   0.222413   -0.866654   0.0631691     0.43639   -0.334853   0.0652221   -0.808418    0.632281   -0.830639  -0.706237   -0.861495   -0.325437    0.985613     0.39004    -0.98896 -0.0172876   0.0380458   -0.263399   0.0695531     -0.91228    0.701616    -0.207506    0.199352   0.234219   -0.29123    0.19328   -0.0334669   0.0348598    0.620193     0.795939   -0.519457   -0.190166    -0.103933 -0.00330579     0.937259   -0.228926   -0.599759    0.815345    0.351994  -0.155348    0.786828  -0.0989195    0.405491    0.470686  -0.838586 -0.0204342   -0.350942   -0.214889   -0.575726    0.205745  -0.822115     0.302663   -0.0866915   -0.575217   -0.238105   -0.717483   0.338936    0.867482  -0.805393   -0.478897   -0.170496   0.134642   -0.862557   0.0950378    0.835195   0.521828  -0.0710943    0.72641   -0.630361  -0.890686      0.99855    0.260919    0.572278   -0.431706   -0.580803   -0.344889   -0.160145     0.97311    0.219967    0.368036   -0.923918     0.337456  -0.00401026   -0.626775    0.880848   -0.302558   0.636719   -0.211009    0.318287   -0.398062  -0.980121   -0.476025   -0.753652     0.887568   -0.587578  -0.934108  0.0345594   -0.0540789   -0.228848 -0.0387793   0.578713    0.179765   -0.434309    0.100334  -0.148252    0.711268  -0.368755    0.467755   -0.490795   -0.894451   0.0341418   -0.649671      0.7207  -0.0568869   -0.122229   -0.370592   0.0573673   0.523528   -0.111602    -0.342628     0.759242     0.106962   -0.397497    0.169102   -0.595634   0.321283    0.873194   -0.596095    0.681918    -0.82809   0.211972    -0.207855   -0.976759   -0.910685    0.568602   -0.523834  -0.280784   -0.158743    0.447009     0.849169     0.33532   -0.873936    -0.507557 -0.00104612   -0.187615  -0.0870602   -0.606086   -0.311641    -0.175372     0.910054     0.346619  -0.238764    0.784363    0.731717   0.925721   -0.831002     0.797778   -0.004758   -0.905069    0.451148    0.591206    0.281666   -0.704486  -0.146636   0.105504  -0.0300919     0.939388     0.76625    0.916323    0.140559    0.409735   -0.490027    0.526063    0.547487   -0.992418  -0.510712    0.613412   -0.201845  -0.853928   -0.169674   -0.258368   0.0459433   -0.998068    -0.284132   -0.717215   -0.320109  -0.251382    -0.277059  -0.201002    0.638575   -0.666985    0.272267   -0.197803     0.995242    0.453563   0.068244   -0.58051    -0.556548    -0.934873  0.0179893   0.934497   -0.237235   -0.752625     0.79941    0.150566   -0.80582   0.381956   0.165572   -0.318508    0.624682    0.132504   0.705071   -0.344407   -0.646495   0.936677   -0.246699   -0.598452   -0.472335    0.848662     0.22524   0.301912   0.0760084    0.457498   -0.844711   -0.610616   -0.800621    0.571965  -0.0219108   -0.346439    0.673337     0.574674    0.108647  -0.820771    0.273374   -0.765075     0.500922   -0.281243   -0.497951   -0.503331     0.911743   -0.480319    -0.928294   -0.971036     0.369261    0.986686   -0.501241    0.312636  -0.123558    -0.323833   -0.826905    0.557518  -0.0758566    0.730262   -0.978287    0.300983    0.785464  0.00304592    -0.463558    0.763885    -0.38462    0.999168    -0.114383    0.650471    0.434787    0.870567    -0.128371    0.891952    0.599976    0.674903   -0.980078    -0.703083   0.0383677     0.47382   0.570809  -0.917278    0.860691   0.514008    0.719159   -0.273228    0.846663     0.68609    0.162285   -0.0662178   -0.450883    0.533803  -0.214754     0.738013  -0.439827   -0.216667   -0.750943    0.099013    0.404575   -0.109798    0.411568   -0.957379    0.286283     0.319497 -0.0927721   0.843014  0.0337352     0.271838    0.118407   -0.770159    -0.17985    0.505725    0.424703 -0.0387888   -0.585061    0.495532 -0.0265256  -0.499705  -0.480871   0.200357   -0.919084   -0.468724    -0.16278     0.505046    -0.993672   -0.341649   -0.687722   0.0835814    0.431808    0.625621  -0.467331   -0.774866   -0.140374    -0.48191   -0.224237    0.379453   0.0932184  0.0255511   -0.574213    0.778963   -0.397447    0.778839   0.473509  -0.286869  -0.109314   0.0389831    0.354752   0.515973    0.534667   -0.497106   0.0511795    0.209689   0.254597   -0.353454    0.686375    0.228689   -0.333809   0.304955    0.754305  -0.984546    -0.677242   -0.500777    0.481701    0.955488    0.346393    0.856747   0.0768635  -0.326693   0.0306123  -0.0190244  -0.778779      0.18983  -0.468143    0.722833   -0.166285     0.661123   -0.572084   -0.222207   -0.920129   -0.408366   0.0491054   -0.147931   0.885645  -0.900898   -0.213302   -0.938032   0.528792   -0.932056   -0.72042  -0.457189     0.357158   -0.251236    -0.88524  -0.867705  -0.793369    -0.423118   0.945876  -0.932147   -0.466975     0.329535   0.460763     -0.21907   -0.282009   0.484938   -0.823646 -0.0898033   0.250981    -0.629622   -0.852935    -0.690285   -0.263285    -0.645557    -0.482846    0.796837    -0.759781     0.84297    0.255156   0.186284     0.11648   -0.612109   -0.217866    0.243907     0.88141  -0.682786    0.846856  -0.854708   -0.546029  -0.875209   -0.455674    0.186813   -0.402947    0.159945   0.994272   0.529643   -0.583542  -0.254686   -0.573596  -0.802398   -0.825214    0.491413    0.320012   -0.550398   -0.349328  -0.321981   -0.379699    -0.769102   -0.140793     0.27612   -0.211906    -0.7507   -0.409876    0.136278   -0.68915   -0.731421   0.612052   -0.303765    0.783179   -0.52864   -0.166561    0.767915   -0.203991   0.071541   -0.627605     0.73874   0.890964   -0.303782  -0.0218109  -0.0447404    0.513264    -0.265407   -0.180842   -0.879131   -0.552536    0.269135   0.496825   0.0385177    0.741634    0.874153   -0.985711   0.386007   -0.636626    0.403675   0.347337   -0.531066     0.797071   -0.716189      0.63308    0.753287  -0.0902154   -0.844479   -0.802866    0.149841    0.752433    -0.795069   -0.670897    -0.410319   -0.398645 -0.0484371   -0.334995 -0.0811624  -0.960302    0.416692    0.178554    0.562904   -0.263672   -0.457974    0.167928    0.750979  -0.513875   0.394276   0.230929  -0.0275214     0.83097   -0.39204   -0.472136   -0.611513   0.813684  -0.864134   -0.200018   -0.491785   -0.102481    0.585489      0.74584    0.636735   -0.941153    0.554683      0.4654   0.545637  -0.996478    -0.645908    0.501542   0.796068 -0.0483345   -0.594727  -0.280432  -0.881818    0.512387    0.879515    -0.223705   -0.308094     0.33363    0.293282    0.691581  -0.027458   0.841764   -0.672417    0.560209    0.914843   0.204645   0.0921502    -0.769486   0.00463402    0.524156    -0.465872   -0.038026    0.447399    0.833071    -0.228794   0.744242      0.19536   -0.121822    -0.379665   -0.304809    0.51874  -0.210088      0.49688   -0.545689    -0.94459    0.879658    0.868031  -0.585732   -0.238528    0.535241   0.061461  -0.684077   0.668916   -0.371825   -0.893108   -0.294005   -0.892016    0.229854    0.878055   -0.698978   0.341776  -0.0980991     -0.66858   -0.137459    0.317397   0.0369749   -0.531218   -0.823008    0.324624   0.762047    0.493099  -0.0299935   -0.530589    0.953745   -0.479465    0.0119791   -0.821983    0.620159     -0.43303   0.642197  -0.0306395    0.290819    0.397333    0.97005  -0.323806    0.582428   -0.336916    0.887134   -0.88698    0.985174    0.710876    0.979736    -0.858087   -0.367328   -0.762371   0.0929724   0.524195     0.3574    0.507267    0.832982   -0.644055 ⎥
⎢    0.536361    0.426233    0.760159   -0.472259   -0.912705  -0.813026   -0.470867    -0.821585    0.768547    0.851571    0.310244     0.997982   -0.891209     0.74635   0.802884  -0.0661749   -0.307451   -0.607441   -0.660118    0.491332    -0.88221   -0.701317   -0.236398  -0.977533    0.114962   0.388965  -0.891789    0.474218   0.848819     0.53152   -0.373577    0.645464     0.41393    -0.55449    0.930102    0.235389    0.203608    0.807404  -0.495614   -0.240913   0.0778959   0.981132    0.889558  -0.0043214   0.458576     0.72328   -0.875993  -0.461442   0.424124    0.952271     0.137967    -0.410236    -0.153069   -0.578919   0.0650744    0.397912   0.350551  -0.471555   -0.437381    0.477786  -0.330006  -0.428263   0.938671    0.780333   0.639737   -0.365766    0.893393    -0.74336     0.11534    0.466204    -0.1887   -0.558924    0.452888   -0.607249 -0.0744872   -0.381797     0.735618   0.0465919   -0.568923   0.972327    0.216572    0.373711   -0.229603   -0.284547    0.499373    -0.19557   -0.948242    0.943839  -0.527522    -0.165692    -0.742132  -0.761982    0.873387   -0.191219    0.951212   -0.193019     0.812763    0.302134  -0.0494384      0.1453    0.498585    0.290455   0.939333   0.299296  -0.159304    0.563974    0.818987    -0.161968   0.550937    0.888876    0.421285  -0.444675    0.406864  -0.795282   0.786192  -0.997652   -0.791691    0.365077    0.488637 -0.0821452  -0.737973    0.892302     0.117992    0.150132      0.76166   -0.368268   0.540004   -0.963437     0.39496     0.964928  -0.333971    0.181067     0.760881    0.13265    0.551544   -0.995196     0.983718   -0.610173   -0.435819   0.696631 -0.00568575   0.0514379 -0.0114396    0.655231   -0.0144559   -0.687014    0.238657    0.141223      0.2819    0.866863    -0.326691    0.800729   -0.635706  -0.149698    0.381369    0.788664  -0.0666893   0.526497   0.641686   -0.761927   0.536058   -0.596571    -0.29661   -0.371411   -0.321371    0.221121    0.417685    0.718144   0.424137   -0.565023   -0.309718    0.489773    0.711082    0.795818    0.149752    0.441765    0.138464   0.343927    0.719725    0.625306   -0.901926   -0.530421   -0.759335  -0.339023   -0.125439    0.862393    0.130294     0.460431    0.369234    -0.727163     0.42062    0.75291  -0.706924  -0.295449      0.13582   0.0136657   -0.681019    -0.780139   -0.652538    0.137813     0.263844    0.240498    -0.882869    0.547003    -0.58296    0.174915   -0.362865  -0.853152  -0.0497544   -0.212698  -0.0262774    -0.54996  -0.473175   0.365637    0.988033    0.183015    0.504025    0.856275  -0.768936     0.566648    -0.507943    0.190979    0.684888   -0.881236   0.656845   -0.383316   0.351967    0.980796    -0.30863   0.865973    0.229437   -0.393983   -0.279062   0.708392   -0.964995   0.339022   -0.377001   0.140731    -0.427686    0.680406    0.553282   -0.491349   -0.117759   -0.938197  -0.0934521    0.138578   -0.430898   0.0192728   -0.490097   -0.0522184     0.138374   -0.849289    0.217744   0.0899196   0.180561   -0.541134    0.902316    0.426071    0.59558   -0.798209   -0.231914    -0.280146   -0.745118   0.414056  0.0640664    0.0454428   -0.848364   0.683561   0.336019   -0.809564   -0.973692   -0.493974  -0.384997    0.188519   0.392545    0.692231    0.714396   -0.566799    0.117894    0.735546   -0.316184    0.200419    0.599429     0.29203   -0.981288  -0.306294    -0.44131     0.922523    -0.652311     0.530242    0.190309 -0.00834638    -0.13775 -0.0828966     0.31839    0.816825   -0.691752   -0.689609 -0.0945391    -0.193177   -0.961073    0.399335    0.138927   0.0880501  -0.300131   -0.681145   -0.620564    -0.761378    0.584967  -0.0927062     0.683579   -0.946659    0.844385   -0.479228   -0.460064    0.640158      0.22482   -0.0287734     -0.84192    0.12557   -0.359109   -0.340141   0.354425   -0.315377     0.921519    0.992942   -0.617013     0.46785    0.849586   -0.708197    0.704426   0.306827  -0.120019    0.812339     0.940085   0.0950077   -0.825495    0.612411    0.430273    0.948762  -0.0261502    0.151402    0.108818  -0.919168    0.719714   -0.756374   -0.81934    0.241986    0.773273    0.781417   -0.710325     0.560314   -0.951696   -0.193398   0.598532    -0.601976  -0.958685  -0.0766734    0.899993    0.145697    0.830462    -0.836948    0.689467  -0.478471   0.455823     0.183949     0.790853  -0.665038   0.416479   -0.211009    0.770616   -0.544565   -0.169422   0.308991  -0.656843  -0.947786   -0.955003    0.836556    0.231091   0.781867   -0.309478  -0.0858433  -0.542359   -0.398702   -0.400591   0.0183514   -0.547002    0.287051   0.985795     0.42479   -0.819547   -0.205123   -0.631873   -0.748432   -0.747709    0.717112   -0.200803    0.663188     0.125068   -0.984929  -0.610782    0.302057   -0.644184     0.230199    0.543419    0.956862    0.638828    -0.129984    0.557361    -0.114061    0.424843    -0.999584    0.566668  -0.0124562    0.621551   0.861524     0.860997    0.151994   -0.948452    0.841061   -0.557416   -0.470999  0.00847769   -0.476354   -0.144701    0.0977275  -0.0994673     0.22102   -0.525548    -0.836348    0.607792     0.80348    0.785678    -0.709548    0.202368   -0.852916   -0.818692   -0.890773      0.67996    0.378002   -0.203116   0.264231   0.388798    0.928236  -0.430304    0.531889    0.319254    0.677844   -0.397475   -0.127434     0.068895   -0.988839    0.521153    -0.1594     -0.61896  -0.372065   -0.345282    -0.85078   -0.116121   -0.442605     0.24169     0.38464    0.164578    0.202039     0.931877   0.968914   -0.56679   0.931447    -0.542304   -0.957997  -0.0674085    0.455167   -0.188648   -0.684179  -0.998839   -0.212679   -0.628282 -0.0323206  -0.538766   -0.43769  -0.609879    0.609663 -0.00696582   -0.702161    -0.740421    -0.570296    0.521399    0.168711   -0.173314   -0.601789    0.640375   0.217399    0.407051   -0.667686    -0.94499    0.923761   -0.505978  0.00115168   0.714561    -0.25917   -0.340646    0.143691   -0.353186   0.075177   0.649484   -0.83243    0.465041   -0.101599  -0.240658   -0.277484    0.249057    0.340843    0.628055  -0.937241   -0.119281   -0.131535    0.496302    0.459998   0.308226   -0.401037   -0.93858     0.271746   -0.297188    0.176754   -0.801215   -0.403344   -0.272827   -0.809664    0.40331   -0.654997    0.860764  -0.621086    -0.998612   0.596773   -0.037591    0.999411   -0.0741721    0.942674   -0.460885  -0.0845897   -0.727886    0.048399   -0.717397   0.931184  -0.672995    0.168758   -0.631462   0.254058   0.0359017   0.970127   -0.21459    -0.916145   -0.898099    0.545621 -0.0680618  -0.783697    -0.312528  -0.889047   0.180012    -0.28737    -0.229164  -0.869689    -0.511892    0.766485  -0.379142    0.471452  -0.225501  -0.805062    -0.842794    0.442023    -0.593165   -0.190248    -0.357924     0.744769  -0.0503736       0.7609   -0.776691   -0.853583  -0.172758   -0.192498   -0.158343   -0.158938   -0.329688    0.755827     0.2156    0.615989    0.58699    -0.13639  -0.102263   -0.925707     0.85021  -0.0686255   -0.692374  0.0924083   0.802212   -0.681624   0.561086    0.482819  -0.255102    0.962639    0.929354    0.966255    0.657707    0.195065   0.730369    0.439215    0.0599147    0.652999    -0.51259    0.892411   0.293968   -0.280417   -0.303835  -0.253443    0.942351   0.885093   -0.862695    0.141225  0.0407902   -0.508285    0.551866   -0.788069 -0.0035392   -0.793698     0.93683  -0.123311   0.0998832    0.287432   -0.298193    0.459836     -0.36253   -0.589739   -0.308339   0.0977676    0.666647  -0.677838    0.544734  -0.0576667    0.985134  -0.0940192  -0.338602    0.649439    0.596142   0.413148    0.493788    -0.047712    -0.87178    -0.436149   0.0204648    0.265562   -0.716699    0.433336    0.325987    0.527235     0.678145    0.256911      0.71131   -0.742123   0.322235    0.406296   -0.33063    -0.2152    0.959789    0.520735     0.93057    0.445095   -0.468156    0.786366   -0.641281   0.546443   -0.90602   0.345512    0.635301    0.311085 -0.0171673    0.962788    0.886468   0.892791  -0.307638   -0.405329    0.941117   -0.268535     0.13423     0.128318    0.795656    0.217441   -0.992712    0.227588  -0.424652   0.126862     0.929717    0.584778  -0.804084   0.924566   -0.884213   0.231605   0.488453     0.37739   -0.451128     0.890741    0.110879   -0.617092    -0.68184   0.0876746  -0.845913  -0.203896    0.513935    0.519602   -0.832493   0.553094   -0.991683     0.923276     -0.70737  -0.0412597     0.859617    0.230526   -0.873668   -0.415115     0.158652   0.746396    -0.994588   -0.163922     0.686135   -0.800862   0.719776  -0.858997     0.381627   -0.979664  -0.0890344    0.877666    0.660662 -0.0783341   -0.919397    0.713127   0.655425   0.138696   0.395041   -0.125717   -0.327352    0.342119     0.20943    0.271523    0.547043   -0.423986   0.113749    0.995797    -0.608953    0.860358     0.70598    0.217645    0.665795   -0.827315   -0.836439   0.872304    0.663971    0.115586    0.935766    0.355682    0.972067     0.724137    0.600319   -0.487931    -0.519361   0.628626   -0.309365     -0.9398    0.626867     0.7645   0.652248    0.342969    0.337514   -0.753307   0.312114    0.486935    0.768121    0.994435     0.935329    0.252659    0.171577    0.693787   0.442852  -0.434081    0.836106    0.830019   -0.396652 ⎥
⎢    0.275232   -0.140777    0.371191    -0.33197    0.191482   0.150603    0.172005    -0.637455   -0.876579    0.176578   -0.661355     0.493213    0.398477   -0.443395  -0.360151    0.325622    -0.87046    0.495111    0.618054    0.397439    0.068766    0.556925   -0.582355  -0.316368    0.937276  -0.810551    0.60665    0.345515  -0.201478    0.752062     0.17753   -0.373149   -0.609955    0.789963    0.932286   0.0728261   -0.560105    0.536718   0.802545   -0.309141    0.402342  -0.120864    0.681689     0.32023  -0.305659    0.703565   -0.315929  -0.979216  -0.846935   -0.208631     0.874021     0.746008    -0.910715    0.178151   -0.119971   -0.685746   0.241358    0.86716    -0.27233    0.409384   0.717764   0.212348   0.152085    0.716758  -0.515976   -0.823511    0.145449    0.127083   -0.462748   0.0620129   0.296738   0.0978982   -0.561831   0.0457894  -0.473312   -0.161091    -0.211228    0.826755   -0.464873  -0.532994   0.0104743     0.11291    0.344399   -0.756145    0.466895    0.261162    0.383789   -0.095515    0.88226    -0.501753     0.109574  -0.979285   -0.570876    0.422396   -0.124591    0.707213     0.122923    0.842477     0.24813    -0.20966    -0.19889   -0.540955  -0.132501   0.656095  0.0177215    0.455073    0.475993    -0.874621 -0.0443389   -0.264251    0.991312   0.657901   -0.873951   0.196549   0.444307  -0.129464     0.75759   -0.262852   -0.441456   0.689208  -0.865835     0.25679     0.253538   -0.596655     0.859784   -0.945227  -0.413301    -0.45406   0.0308982     0.171668  -0.512827    0.824714     0.253949   0.740619    0.445991    0.221158  -0.00512451    0.349882    0.447123 -0.0155789    0.161459   -0.633899  -0.150643    0.308742    -0.288482    0.718479    0.243944    0.721764    0.813025    -0.70447    -0.132205    0.792543   -0.299109   0.149752   -0.313065   -0.117333   -0.551413   -0.99864  -0.230089   -0.718937   0.747169    0.300724   0.0511131    0.317548    0.305233    -0.24913   -0.983935   -0.945776    0.55261    0.127347    0.607533    0.446973     0.53699   -0.776612    0.873744    0.923027    0.238012  -0.436347   -0.816733   -0.862536   -0.180606   -0.331725   0.0468824   0.622599   0.0932152    0.345154    -0.37713     0.778802   0.0440958      0.81634   -0.622598   0.267731  -0.384301   0.424816    -0.283632   -0.636848    0.353544     -0.89894  -0.0538036    0.333942    -0.878492   -0.082567    -0.924483   -0.391818   -0.801431   -0.548686   -0.820261  -0.202104    0.143268   -0.407994  -0.0314583   -0.641243   0.350602   0.479976   -0.490113   -0.625172   -0.169286    0.144182  -0.454984     0.940403     -0.63999    0.957176    0.281219   -0.829952   0.445201   -0.904254  -0.195684   -0.957814    -0.13068  -0.869568   -0.123424   -0.396723    0.405791  -0.412665    0.379102   0.257221   -0.721457  -0.618296    -0.794109   0.0640875    0.800527   -0.774194    0.481957    0.983076    0.398647    0.835809    0.308335    0.283103    0.368464     0.517743    -0.194427  -0.0762875    0.568058  -0.0870618 -0.0788991    -0.92326   -0.905671    0.658507   0.192221    0.750839    0.560357     0.159603  -0.0749545  -0.436851  -0.950758     0.685746   -0.723344  -0.261209  -0.356357   0.0874311   -0.621913    0.421482   0.131578   -0.322842   0.860517    0.604547    0.672253     0.22776   -0.313569   -0.900792   -0.100224   -0.626801     0.82575    0.386117      0.6863  -0.977702   -0.811742      0.75823     0.506585   -0.0826876    -0.51124   -0.127547    0.289642  -0.576215   -0.604336   0.0873929    0.508923    0.697256   0.740463     0.136858    0.713585    0.559042   -0.433175   -0.230423  -0.990084    0.364167    0.734915    -0.981105    0.714643   -0.149168    -0.578016   -0.859365   -0.316348    0.673249   0.0446941   0.0348562     0.293584     0.121551    -0.705753  -0.743796    0.737974     0.95101  -0.323293   0.0402189     0.973614   -0.442805    0.613236   -0.294507  -0.0868924    0.586498   -0.669303   0.155659  -0.224461   -0.888198   -0.0416126   -0.704063    0.530798   -0.431606   0.0600479   -0.442432   -0.335496    0.502352    0.191711  -0.576481   -0.285358   -0.215339  -0.676389    0.272069    0.524912  -0.0997031    0.440753     0.968292   -0.189191   0.0116355   0.386106    -0.800202   0.382336    0.545026    0.836582    0.607795  -0.0385057    0.0600054   -0.551549  -0.409563  -0.539578     0.812425     0.833975  -0.350492   0.574789    0.663294    0.793279   -0.247346   -0.549046  -0.841485   0.233454 -0.0371336   -0.837797   -0.959361    0.228894  -0.430613    0.250864    0.246361  -0.821925    0.686927     0.58366    0.479173   -0.359016   -0.965509  0.0943564   -0.851213   -0.896323   -0.702339  -0.0092023   -0.405672   -0.120737   -0.581622    0.776953     0.11918    -0.506701    0.952879  -0.385796   0.0326917    0.675373     0.315507   -0.403836   -0.311526   -0.556644    0.0457268    0.543961    -0.570391   -0.673504     0.357391    0.612077   -0.153686    -0.27835   0.925252     0.864577   -0.287467   -0.223993   -0.844813    -0.51013    0.547994    0.486983   -0.351605   -0.317807    -0.685402    0.209926    0.655138   -0.779465     -0.94526    0.849977     0.91281    -0.19072    0.0851152   -0.337299   -0.339423   -0.794754   -0.388741     0.616741    0.128633   -0.922133   0.119957   0.521532    0.851276   0.712986    0.731556   -0.184113    0.763128    0.910409   -0.930064     0.520703    0.398079   -0.452829  -0.557058    -0.993904   0.140306   -0.541116    0.818416    0.749813    0.365462    0.724072   0.0966963   -0.881116   -0.650338    -0.393773  0.0166043   0.410844  -0.021356    -0.073945   -0.283451    0.861214    0.344953  -0.0054478  -0.0951199  -0.898814   -0.276555    0.673921   0.286386  -0.908652   0.834448  -0.205583      0.1026  -0.0606956   -0.349266   0.00512469    -0.958833    0.307522    0.845658   -0.330418    0.475406    0.458766 -0.0140788   -0.801306   -0.189365   -0.548759   -0.435868   -0.756565    0.348026   0.748509    0.668484    0.583586   -0.989337   -0.840325   0.335467  -0.110341  -0.664091    0.540202    0.428915    0.63094   -0.652466    0.804127    0.450109    0.622409  -0.354209    0.250382   -0.797777   -0.800325    0.110064   0.353389    0.808556   0.745445     0.116942  -0.0304283    0.825307     -0.2193    0.887074    0.064275   -0.125497  -0.694447     0.10588      0.4457  -0.908495     0.516391  -0.566479   -0.601218    0.218838     0.654694   -0.833718    0.547531   -0.305193   -0.114218    0.753762   -0.649661  -0.869394  -0.203507    0.498495  -0.0551859  -0.462933    0.229107    0.60184 -0.0414716      0.42772   -0.967157   -0.135943   0.220105  -0.641207    -0.783877   0.484009  -0.776787    0.926115     0.453076  -0.357931     -0.64796    0.880963  -0.721589   -0.818181   0.842623 -0.0218112     0.665329    0.901691   -0.0443891   -0.843978    -0.455916     0.506211   -0.420402     0.720937    0.589078   -0.773836  -0.970721    0.169104   -0.842616    0.746128    0.747205   -0.421149   0.979587    -0.14099   0.401967    0.682904   0.333614    0.292234    0.824699   -0.395309   -0.225759   -0.18798  -0.798631    0.433912   0.312244    -0.23609  -0.578035   -0.239364    0.708383    0.626631    -0.13956    0.601969  -0.544518  -0.0662935    -0.527262   -0.459609   -0.949009   -0.664612  -0.443062   -0.332145    0.594419   0.985539   -0.908586   -0.84767   -0.456728    0.919745 -0.0737203   -0.239646   -0.610267   0.0946274   0.671751    0.542291   -0.545745  -0.772744    0.738157    0.280492    0.781207   -0.568204     0.757821   -0.883428   -0.214779   0.0180461   -0.773458   0.935647   -0.774199    0.659224   -0.749273   -0.724979   0.846182   -0.844634   0.0217087    0.11739   -0.285264     0.384818    0.338584     0.986432    0.809908    0.138146   -0.959376   -0.489307    0.993821   -0.490449  -0.00421196   0.0895555     0.798077    0.820711  -0.978669    0.581855   0.634183  -0.851361     0.29565   -0.936968   -0.171006   -0.817314    0.597516    0.879465  -0.0991951   0.475785  -0.302765    0.42844     0.25895   0.0927773   0.418928     0.64522   -0.643127  -0.510001   0.255855   -0.605218    0.197548    -0.50907    0.878871 -0.000190735    -0.77645    0.962997     0.47489    0.695497  0.0539802  -0.233519   -0.0364605    0.804012  -0.294461  -0.478602   0.0253456  -0.354508  -0.756684   -0.104986    0.160696   -0.0606917   -0.932841   -0.422866    0.389478    0.601049  -0.540706  -0.829093    0.282866   -0.333465    0.773848 -0.0221424     0.90703     0.718258     -0.64653     0.95103    -0.944578   -0.602344    0.434927    0.131356   -0.0452954  -0.340239     0.673579   -0.122461     0.802336   -0.868441   -0.33452   0.878714    -0.652009    0.403923    0.306761   -0.643225    0.181211   0.837432   -0.881473    0.852903   0.524315   0.221659   0.812513    0.116401    0.918098    0.511132    0.512912    0.911194    0.663475    -0.64452  -0.609868   -0.542508    -0.823402    0.249916   -0.654051    0.863669   -0.536174   -0.296666   -0.767242  -0.139166    0.377946   -0.376216   -0.571783    0.129122    0.662239     0.684469   -0.574537    0.070856     0.888321   0.216241   -0.566082  -0.0176226    0.926989  -0.512819  -0.967395   -0.569872    0.384881    0.534532    0.77725     -0.6251   -0.369191   -0.324288     0.145907   -0.634435   -0.087522    0.838287  0.0639937   0.369123    0.279555   -0.933406     -0.1516 ⎥
⎢   -0.803893   -0.750252   -0.578934  -0.0670129    0.478936  -0.166973    0.378082    -0.658906    0.101735     0.90208    0.266813     0.653333   -0.220532 -0.00446284    0.43356   -0.954226   -0.512479    0.424585    0.184607   -0.123186   -0.702222   0.0615913   -0.229956    0.25321    0.610958  -0.457425   -0.67368   0.0725358   0.622983   -0.328105   -0.242301   -0.338388    -0.10779   -0.802807    0.290028     0.10745   -0.276033   -0.506281  -0.972834   -0.641895   -0.560081   -0.92019   -0.337105   -0.617262  -0.803436    0.922418    0.730228   0.620276  -0.761695    0.744565     0.858271      0.62723   -0.0461324    0.908045    0.102951    0.755651  -0.197184   0.144935   -0.296373    0.847741   0.741716  -0.740466  0.0262713   -0.139786  0.0510556    0.767674    0.367366   -0.651263   -0.539763   -0.159262  -0.669669   -0.970919     -0.2534    0.929095  -0.928447   -0.590207    -0.585349    0.974995    0.911911   0.790487   -0.106814   -0.959834    0.227504    -0.12632    0.927882   -0.526412  -0.0398971   -0.305993  0.0600235     -0.85133    -0.644964 -0.0287951  -0.0294643   -0.140675    0.717125   -0.959514    -0.860814   -0.761594   -0.871899    0.728554   -0.821193   -0.341772 -0.0538512  0.0554534  -0.990357    0.538564   -0.972699     0.788164  -0.219792    0.424008    0.220702  -0.909418   -0.816436    0.70007  0.0256035  -0.617151    0.949994    0.802348    0.609656  -0.573955   -0.44868    0.730146     0.983672   -0.951696    -0.814261    0.439905   0.343599   -0.966887   -0.282985     0.624725 -0.0739529    0.607389    -0.370798   0.778646    -0.38726   -0.608425    -0.340393   -0.763016    0.286942   0.668387   -0.483404   -0.624608    0.81067   -0.756089     0.512691    0.558294   -0.104798   0.0139847    0.772827   -0.105758     0.749826    0.303843    0.279083  -0.670516    0.450847    0.293781   -0.978721   0.633851  -0.774429   -0.814284   -0.49172    0.429193   -0.410933    0.960372    0.228439   -0.673533    0.388468   -0.520118   0.856288   -0.777642   -0.953659    0.474391    -0.67004    -0.82104     0.20363    0.571255   -0.171001   0.202634    0.682973    0.430656   -0.359581   -0.830715   -0.758566  -0.171766     0.99745   -0.444184   -0.762929     -0.99561   -0.945908      0.85961    0.387174   0.161478    0.57927  -0.471073    -0.506131    0.719935    0.573683    -0.675173    0.224261    0.984779    -0.559046   -0.436157    -0.410776    0.813047    0.564675   -0.279178     0.34116   0.537133   -0.027192   -0.663668    0.477596   -0.036091    0.16769   0.575029    0.370464    0.460082    0.274939   -0.863291   0.274289     0.650629     0.349291    0.567385   -0.116102   -0.593455  -0.992822    0.566528  -0.994669    0.844088   -0.270442   0.253783    0.279139   -0.647621    0.969552 -0.0845201    -0.68667  -0.538249   -0.088354  -0.603421    -0.359624    0.369962    0.925907    0.242648    0.113403    0.887414   -0.997014    0.686175   -0.585998    0.662298   -0.927115     0.370576    -0.911432  -0.0634928   -0.599235    0.213106   0.407042   -0.331431   -0.878043  -0.0135905   -0.38301    0.280262    0.915627     0.726634    0.769078 -0.0450832  -0.120454   -0.0564773   -0.135994   0.560576   0.645701    0.614799   -0.728087   -0.612137  -0.368727   -0.338847   0.684545    0.357115    0.262671    -0.66919    0.592129  -0.0275399   -0.667494   -0.914834    -0.28156    0.466455    -0.82746   0.633159   -0.919567     0.266508    -0.432902     0.902149    0.133726   -0.892462    0.933323   0.986806   -0.856458   -0.100128     0.53054   -0.738317   -0.88551     0.536463    0.492259   -0.219248  -0.0623984   -0.829658   0.297677    0.166542   -0.238541     0.959883   -0.865287   -0.369695    -0.131734   -0.705852   -0.927775   -0.131314    0.778188   -0.809933    -0.567328     0.870489    -0.920948   0.319909    0.330113   -0.462682  -0.236838    0.125091     0.227733   -0.310489   -0.784501    0.143204    0.933058    0.885864   -0.339553 -0.0807809   -0.74343    0.694446     0.920323    0.035689   -0.833099   -0.873709    0.134339    0.531471   -0.572715    0.661296     0.16907 -0.0319606   -0.525996   -0.685097   0.518719   -0.305982    0.196605    0.946229    -0.62349     0.176993  -0.0893637   -0.823337   0.401353     0.854506   0.841004   -0.771914    0.995356   -0.739811   -0.372872     0.261538    0.307697   -0.53913  0.0248194    -0.987037    -0.970643   0.294551  -0.121504    0.412524   -0.240737   -0.517608    0.239604    0.13174   0.232878    0.66608    0.917418   -0.075245    0.734865   0.112026   -0.507088   -0.403628   0.155423     0.27152    0.755138    0.550935   -0.583762   -0.736896  -0.220067   -0.630592    -0.38133   -0.710225    0.620198    0.564987    0.660414    0.390638    0.276299   -0.942293     0.562836    0.929827   0.174434   -0.767476    0.966451     0.486006   -0.858243   -0.110337   -0.937835     0.511075   -0.678477    0.0485988   -0.655892     -0.40589   -0.235986   -0.653709   -0.538532  -0.192502     0.598646   -0.507645    0.342262    0.978327   -0.233053   -0.429916   -0.641066    0.123198   0.0127966     0.132578    0.624079    0.388658   -0.290537    -0.614189    0.587087   0.0155876    0.403719     0.861198   -0.724962   0.0165085    0.470963    0.329298    0.0124131     0.55395    0.749018   0.686146   -0.31651     0.18142  -0.946515    0.142596    0.248483   -0.499875   -0.600244    0.349922   0.00335729   -0.675894   -0.617726   0.827529     0.413025   0.924768   -0.207541    0.203667   0.0798925   -0.148824    0.142503   -0.127618   -0.671438    0.412798    -0.411329   0.800682    0.43406  -0.748386    -0.286823    0.136352    0.594559   -0.218738   -0.818229    0.979013  -0.430685   -0.334704     0.11298  -0.678638  -0.471158  0.0507313  -0.370182   -0.614601   -0.942243    0.364763    -0.736208    -0.113433    0.598579    0.677407    0.101941   -0.652701   -0.735734  -0.695357    0.658076   -0.901657   -0.808843      0.1695     0.27587   -0.461639  -0.958761    0.215429    0.128701    0.372103   -0.432742  -0.153367  -0.110726   0.860241   -0.620161   -0.956752  -0.570048   -0.119587   -0.696847 -0.00405312   0.0998249  -0.618996   -0.704321    0.296822   0.0785141    0.786919   0.367507    0.105079  -0.116018     0.295145   -0.737149   0.0561001   -0.125424   -0.139726    0.344473   -0.647555   0.227906   -0.839608   -0.213795   -0.56645     0.475596  -0.915376   -0.922935    0.430369     0.031994    0.457731    0.157637    0.516282   -0.311668   0.0759612    -0.68652   0.829394  -0.846256    0.707893    0.721264  -0.452607    0.645143  -0.114688   0.746584     0.505328    0.582537    0.628755   0.356309  -0.931977    -0.750073  0.0877646  -0.811277   -0.669469     0.176034   0.753297    -0.826613   -0.537278   0.246976    0.737794     0.7237   0.913303     0.929576   -0.225869    -0.809115    -0.85486     0.629796    -0.802292   -0.169381    -0.361933    0.637164    0.508012   0.109812      0.5611    0.985497    -0.25239   -0.361333   -0.104425  -0.591429    -0.72894  -0.345212     0.10181   0.790397    0.556468   -0.495232    0.593043     0.88427  -0.617108   0.256098    0.982074  -0.377442   0.0340232  -0.350639    0.909048    -0.11303   -0.848753   -0.734805    0.471839   0.930143    0.542728     0.568051    0.907057   -0.711331   -0.809264   0.139093   0.0337229   -0.801222    0.85155     0.76485   0.574719    0.812385   -0.478651   0.289832    0.997844    0.556953    0.119737  -0.745695    0.469558    0.328773  -0.608729   -0.813748    0.773468    -0.59814    0.575291    -0.029372    0.963845    0.447724     0.46741   -0.335592   0.455665   -0.951203   -0.100931    0.721653    0.277112  0.0690101  0.00876176   -0.359619   0.790997   0.0265231    -0.467521   -0.491498     0.554775   -0.728164    0.333977   -0.574162   -0.279909   -0.233057    0.723459     0.209471   -0.891588    -0.292613   -0.440644     0.9531    0.785418  -0.424641   0.441536    0.094381   -0.914667   -0.166134   -0.208033   -0.199967    -0.52184    0.601858  -0.307052   0.732046  -0.547979   -0.892952   -0.633875  -0.232637   -0.967631    0.135856   0.325572  -0.407438   -0.530427   -0.626993   -0.904722   -0.657695     0.759333    0.785008    0.317168   -0.529147   -0.275025  -0.863876  -0.645975  -0.00414819   -0.154741  -0.693583  -0.127277      0.1354   0.754569   0.656267    0.304217   -0.586237      0.28169   -0.142792    0.588147   -0.102866    0.143625  0.0931145   -0.42333    0.163616     0.17102   0.0702001    0.15742    0.246634    -0.626743    -0.999267    0.590642    -0.387601    0.469517   -0.650091    0.346538    -0.817514  0.0258262     0.462536    0.958356     0.749677   -0.371622  -0.242831 -0.0861607    -0.794273   -0.995583     0.91987   0.0716382    0.617543   0.170969   -0.515711    0.375851  -0.348457   0.640691   0.981966   -0.334801   -0.369223    0.378273    0.776129     0.31998    0.647653     0.49321  -0.728895    0.105327     0.394978   -0.554273    0.266398   -0.168854    0.138422    -0.26838    0.450119   0.280256    0.900753   0.0263488    0.917551    0.861553    0.990276     0.731895    0.649631   -0.483958    -0.862498   0.981068    0.778433   -0.729027   -0.840608  -0.805401  -0.570136   -0.750329   -0.754063    0.885654   0.720935    0.657983   -0.240473   -0.623752     0.779984     0.90136    0.318268  -0.0255316  -0.321179  -0.844473    0.983417    0.254808   -0.311758 ⎥
⎢   -0.359286  -0.0140788    0.147271   -0.766804   -0.629849   0.947677    -0.89631    -0.285177   -0.103995    0.616114    0.926001     0.976181   -0.835727    0.905671   0.614947    0.366816    0.467087   -0.109843   -0.902069    0.897525   -0.890134   -0.072659   -0.326637   -0.93282   -0.204607  -0.202378 -0.0738926   -0.274028   0.152198    0.617985   -0.384293   -0.857819  -0.0491943    0.126087    -0.60511   -0.231612    0.088721   -0.695688  -0.048842    0.759413    0.610033  -0.775203    0.338816    0.979233  -0.958709    0.300178   -0.752977   0.408257   0.949539   -0.748072   -0.0175504     0.570408    0.0130332    0.528112    0.576694    0.589077   0.738632  -0.719055    -0.26487   -0.911359  -0.047715  0.0766034  -0.884959   -0.385319  -0.565922     -0.7667   0.0714983   -0.395662   0.0496323    0.551844   0.356284   -0.658008    0.433409     -0.5957   0.301923   -0.796334    -0.993745    0.603812   -0.218359  -0.785013   0.0388935     0.95103   -0.375769    0.573501   -0.519184    0.757884   -0.655617   -0.256719  -0.570131     0.790237     0.324298  -0.467558    0.579531 -0.00220197    -0.18803   -0.446799    -0.611146    0.607834   -0.937785   -0.590712    0.474386   -0.762104 -0.0360976   0.113623  -0.732806   -0.198619    0.518661   -0.0873528  0.0993961   -0.654497   -0.121526  -0.913534   -0.329648 -0.0340574  0.0229102   0.743618   -0.449938  0.00806057   -0.546715   0.977785  -0.894661   -0.978946     -0.31131    0.234868     0.311227   -0.154626  0.0214654  -0.0435575   -0.286147    -0.337186  -0.977421    0.355952   -0.0801412  -0.952216   -0.416296    0.458301    -0.760394    0.164222  -0.0839658   0.207298    0.946005    0.913802  -0.646471    0.401444    -0.522144   -0.115998    0.613742    0.757045     0.11957   -0.414883    0.0205344    0.627139   -0.938605  -0.286356   -0.757068    0.787558   -0.847577  -0.670047  -0.114903    0.435553    0.64326    0.836735   -0.161952   0.0146756   -0.643821   -0.456684   -0.918784   -0.886802  -0.188206   -0.731061   -0.116914    0.669611   -0.276202    0.576788    0.283534    0.129215   -0.148136 -0.0565636    0.515093   -0.168454    -0.15258   -0.584257  -0.0965555   0.263474    0.222496    0.720035    0.205665     -0.72371   -0.475484     0.707009    0.257398  -0.666928   0.406239  -0.512179    -0.161528   -0.121277    0.876933     0.217611   -0.479571    0.145504    -0.581346    0.322886    -0.952925   -0.598769   -0.918868   -0.853885     0.91849  -0.656519   -0.192853    0.793364    0.145222    0.306777   0.217204  -0.814044   -0.640443    0.998827   -0.635513   -0.369898   0.454149   -0.0610111     -0.14222   -0.292677    0.341862   0.0340205    0.67723    0.111136  -0.426824   -0.901995   -0.462405   0.270191   0.0470343   -0.721008   -0.737198   0.244038   -0.925176   0.842716    0.940828  -0.854089     -0.82174   0.0664481    0.712388    0.136658   -0.119438   -0.396022   -0.455936   -0.886472   -0.287487   -0.789437     0.45078   -0.0396174     0.937076   -0.711627    0.561566    0.692999  -0.546527   0.0804976   -0.913803    0.455605  -0.535907  -0.0149775   -0.841113    -0.122135    0.443891  -0.371179   0.749876    -0.429121    0.170828  -0.748066  0.0851022    0.654159  -0.0271819    0.145701 -0.0124018   -0.622315  -0.714773    -0.96678    0.290651     -0.6485   -0.651444   0.0797278   -0.128259    0.238016   -0.817243    0.512149   -0.121782   0.310707   -0.461471    -0.977869    -0.657258    -0.847671   -0.313799    0.690943   -0.711571    0.76624   -0.868208   -0.593708    0.863109   -0.431263   -0.41537     0.518428   -0.182081  -0.0703102    0.522436    0.751733   0.988957    0.019925   -0.009673      0.22945    0.306767   -0.146201   -0.0479375    0.791435    0.524188   -0.441265    0.555197    0.453113     0.330254    -0.704127     0.930735   0.264561   -0.693567    0.185282  -0.389899    0.792787    -0.289893    0.584175     0.77267   -0.490008    0.160553    0.899356     0.09661 -0.0356817  -0.419392    0.466343      0.39073    0.927933   -0.425933   -0.430487    0.559486    0.533515   -0.307939   -0.337403    0.830085    0.77157   -0.203174    0.151613  -0.354858     0.84069   -0.208486  -0.0472582   -0.437032     0.898936 -0.00703388   -0.126458   0.861963     0.812177   -0.36903    0.545422    0.998195  -0.0392501   -0.852497     0.652901   -0.795432   0.752367  -0.191785   -0.0314525     0.959018   0.233426 -0.0133809   -0.658443   -0.609849    0.446087    0.920695   0.298369  -0.286797  -0.610496  -0.0575646    -0.40931    -0.88224   -0.95096   -0.399092    0.813448   0.514423    0.546844   -0.962716    0.312666   -0.153085    0.253563   0.250221    0.891491    0.491048   -0.321084   0.0113862  -0.0958778   -0.384525    0.513839    0.506626   -0.980524    -0.764996   -0.972606   0.554052   -0.564139    0.937635    -0.142607    0.882748    -0.88603    0.493356    -0.332774   -0.415588     0.715422   -0.439583    -0.219181    0.672065  -0.0471044   -0.119125   0.146287    -0.643214    0.675246   -0.787085    0.194874     0.23121   -0.666631    -0.49362   -0.131102   -0.653758     0.282184   0.0761746     0.60098    0.750829    -0.772754     0.78201   -0.340931  -0.0465453     0.343196   0.0278766   -0.228808   -0.341381    0.619333     0.904014   -0.803867   0.0118749  -0.655344   0.523143   -0.640814  -0.706277    0.845477   -0.863505   -0.209748  0.00517714    0.771387       0.3136   -0.253492    0.559983  -0.180111   -0.0368843   0.101719     0.81499   -0.833779    0.696146   -0.103321    0.242226   -0.639831 -0.00607997   -0.467788    -0.260386   0.591541   0.172479  -0.559905     0.352335    0.899778    0.713052    0.126801    0.851881   -0.557771   0.460823    0.388196   -0.252624  -0.266233  -0.737753  -0.427511  -0.113859    0.755007   -0.195237   -0.237175    -0.693542     0.860825   -0.259584   -0.429297   -0.616845   -0.740714   0.0388024   0.676809    0.240183    0.902576    0.501765   -0.387274 -0.00598413   0.0529846   -0.18613   0.0244464   -0.679552  -0.0580128   -0.589994  -0.468323  -0.719132  -0.503364   -0.835713    0.325968  -0.141288   -0.250133   -0.368739    0.537104   -0.300805  -0.296439    0.269045   -0.785897   -0.400491    0.361557   0.733699    0.958772   0.830966     0.924282   0.0192922   -0.473478  -0.0405165   0.0725814   -0.279168    0.903135   0.680817    0.319062   -0.258281   0.517111     0.239085  -0.892488    0.364964    0.197534    -0.324079   -0.150978    0.325689   -0.177456   -0.602365   -0.461523   0.0884789  -0.588268   0.310169    0.227992    0.128772   0.980483   -0.593532   0.408574  -0.460188     0.529223   -0.681545   -0.503154   -0.76996   0.902897 -0.000946105  -0.220298   0.786467 -0.00422812     -0.50132  -0.898275     0.851262    0.698596   0.577123    0.317742  -0.126596   0.139853     0.795017   -0.443797    -0.732058    0.149439     0.498342    -0.477489   -0.310508     0.751781    -0.31432    0.192535    0.22097    0.766162    0.308666    0.828717   -0.774879    0.614275   0.237793    0.286441   0.135566    0.660788  -0.756508  -0.0777579   -0.826001   -0.968244    0.739771  -0.796364    0.96308     0.41344  -0.656536  -0.0450369  -0.511402   -0.897091    0.490756   -0.205719   -0.726696   -0.139871  -0.287457    0.368986     0.479999    0.693412    -0.80399   -0.468549   0.303757   -0.707337   -0.429158   0.387872    0.922906  -0.573351   -0.688104    -0.25974  -0.549195   -0.933065    0.944302    0.643488  0.0542656    0.747372   -0.624351  0.0863564    0.303519   -0.413242    0.564182    0.253411     -0.81559    0.476391   -0.864774   -0.975672   -0.712625 -0.0597671     0.75502   -0.688582    0.095288   -0.670081   0.535912    0.466611 -0.00104851    0.28701    0.521495     0.326115   -0.465578    -0.387392    0.436621   -0.568701  -0.0621466   0.0157545    0.434766    0.729232     0.711098    0.747673     0.699386   -0.510167   0.125945    0.751933  -0.991847   0.613055    0.176878   -0.362735    0.275709    0.506004   -0.293376    0.815165    0.233792   0.770349   0.980503   0.704198    0.313201    0.999603   0.684681    0.883485    0.131526   0.999982  -0.453628    0.544751    0.516926    0.464195    0.766232    -0.984873   -0.409279     0.40355    0.785228    0.676755   0.655143   0.562924     0.967132   0.0485389   0.692327   0.753382   -0.933343 -0.0460438   0.215277   -0.221711   -0.531256     0.648107    0.304985   -0.673569   0.0936061    -0.68776   0.167345  -0.708025   0.0411367   -0.480324   -0.589133    0.41106   -0.889204     0.144255       0.4684   -0.521463      0.26346   -0.749346   -0.206314    0.386621     0.649185   0.727389    -0.997338   -0.234943     0.884624    -0.36305   0.664625  -0.326424    0.0811505   -0.555463   -0.418315   -0.624871    0.803465  -0.619008    0.196209   -0.366086   -0.30459  -0.264459  -0.268172     0.19233   -0.340208    -0.15622    0.969561    0.661186    0.629168    0.716535  -0.258651   -0.703996   -0.0277392   -0.852003     0.10835   -0.507643   -0.814888   -0.658159    0.017873 -0.0941512   -0.972135    0.223557    -0.31462    0.639719   -0.261843     0.420758   -0.163913    0.286791     0.514141   0.137972    0.696483    0.636508    0.671643   0.291816  -0.971513    0.352822    0.889089   -0.872739   0.728754    0.617811 -0.00596476    0.493891    -0.997752   0.0573766   0.0571226    0.497617   0.721112   0.497893    0.796446   0.0680984    0.922639 ⎥
⎢   -0.886914  -0.0883499    0.451129    0.687922    0.195554  -0.625502   -0.600492     0.104879   -0.765592    0.414666    -0.42982     0.920852    0.862638  -0.0174282   0.313069    0.699022    0.697802  -0.0578091    0.690044   -0.533107   0.0794244   -0.548744    -0.10389 -0.0758763   -0.163268  -0.597986   0.662964    0.688644  -0.057216     0.42739    0.796307   -0.807853   -0.360505    -0.98745    0.553879    0.586923    0.618771    0.310948  -0.606335    0.550621   -0.238156   0.784984    0.940436   -0.625042  -0.293589   -0.412475   -0.149609  -0.211735  -0.618617   -0.399176    -0.351999    -0.352123    -0.886698   -0.746037    0.585721    0.365058  -0.409498  -0.159905   -0.737222   -0.687059   0.575617   0.458924   0.901054    0.727213   0.234561     0.20889   -0.754951   0.0868903   -0.827953    -0.51357 -0.0639525    0.663152   -0.886217   -0.607427  -0.358044    0.475681    -0.852584   -0.298732    0.606745  -0.495738   0.0106661    0.778089   -0.722984    0.780913   -0.737326    0.893079    0.701383   -0.703376   0.958037     0.686503      0.83643    0.28638   -0.893339  -0.0546883    0.686172    0.638116     0.287487    -0.91202    0.786147     0.96233    0.787263    0.997491   0.488475  -0.283362  -0.150171    0.270043    0.574874    -0.154541  0.0742288   -0.385368    0.524804   0.932791   -0.622202   0.526657    -0.7145   0.964416   -0.336962   0.0811096    0.259932   0.989297   0.289967   -0.693086     0.174194   -0.703042    -0.711742    0.276379   0.307051    0.131626    0.858128    -0.766533   0.135369   0.0497258    -0.938988  -0.330318    0.387797    0.901629    -0.103824   -0.962907   -0.635805 -0.0593498   -0.921069   -0.581521 -0.0749252    0.553414    -0.555846   -0.861398   -0.444842   -0.806958    0.272426   -0.642441     0.881993   -0.836123   -0.845334   0.708246    0.316383  -0.0985633   -0.421759   0.263451  -0.121598    0.146108   0.827971    0.750488   -0.460086   -0.867783   -0.132335    0.446471   -0.155125    0.887451  -0.284909   -0.671778     0.80513   -0.425478   -0.917324    0.399593   -0.339929   -0.726522   0.0435799   0.848467   0.0715226 -0.00352174   -0.609876   -0.455926    0.485291  -0.411063    0.822354    0.864441   -0.662006     0.814077   -0.228305     0.101148   -0.671876   0.548714  -0.385398   0.406338      0.18758    0.452307   -0.956868    -0.497059    0.411904   -0.568431    -0.135591   -0.387468     0.522648    0.178088    0.461992    0.682105   -0.170277   -0.57969    0.298005   -0.851751    0.550698    0.259623    0.38434  -0.519737   -0.724359    0.816993   -0.978714     0.79382   0.616928    -0.800271    -0.481503    0.291275    0.992273   -0.599155   0.597713   -0.187764  -0.191807   -0.917274   -0.299055  -0.102563     0.14484     0.56721   -0.860543     -0.266     0.85339 -0.0464836   -0.635384   0.868211    -0.472843   -0.970565    0.449767   -0.669198   -0.128618    0.150795    0.885338   -0.873248   -0.184597    0.875017    0.463683     0.118185    -0.986406    0.977782    -0.26224   -0.867499   0.925377    0.549328   -0.480307    0.454317  -0.489605    0.770168    0.495777     0.417463   -0.213753   -0.82765   0.018262     0.706606  -0.0119895   0.593881    0.12566   0.0760074    0.335672    -0.77566  -0.566678   -0.633962  -0.743127    0.406598    0.573898   -0.697574   -0.346178    0.200246   0.0869017    0.866242     0.27594   -0.104185   -0.519548   0.117771   -0.355516    -0.584191     0.298477    -0.602948   -0.734516    0.281808    0.390818  -0.948971    0.252137    0.452195    0.335341   -0.788256   0.153172     0.630267  -0.0271142   -0.216133   -0.346271   -0.574572   0.454139   -0.475906    0.164867      0.66208    0.940905   -0.113908     -0.88099    0.333721   -0.801859    0.435246    0.734238    0.087895     0.705036  -0.00350678     0.475316   0.927898    0.540969    0.949502  -0.917795   -0.578038    -0.785866    0.156206    0.303278   -0.942742   -0.484181    0.549773   -0.163591  -0.907815  -0.476012   -0.437346     0.472938    0.255106   -0.967544    0.154146    0.911225    0.266214     0.96064   -0.803695   -0.960496   -0.28129    -0.11548    0.523093   0.797757   -0.033433   -0.373939    0.658283    0.329083    -0.038402    0.604673    -0.22157    0.23543     0.373596   0.556591    0.425462   -0.440329     0.49216   -0.555885      0.68845  -0.0899236  -0.956473   0.738312     0.433629    -0.156093   0.748497  0.0486395    0.110338    0.346573   -0.286318   -0.175106  -0.834839  -0.895177  -0.649159     0.96591   -0.903826    0.401637  -0.747879    0.701311   -0.714658  -0.673063    0.102281   -0.796308   -0.392321    0.850659   -0.552199  -0.652655   -0.894906   -0.317734    0.936246    0.439249   -0.263407   -0.998252    0.580314    0.271237    0.140886     0.520443    -0.76447   0.591919   -0.457431     -0.2816     0.762552    0.162992    0.503072    0.405209     0.694181   0.0665908    0.0471041    0.478792     0.669802   -0.658972    0.413693   -0.909645   -0.14856    -0.388764   -0.667793    0.582685    0.829538   -0.869436   -0.489709   -0.840795    0.451614   -0.976281    -0.322692    0.264293   -0.317099   -0.990137    -0.292257    0.185426    0.513823   -0.619954    -0.073988   -0.522948    -0.93451    0.703853  -0.0760229     0.878271   -0.227111  -0.0258272   0.721462   0.359066   -0.642619  -0.225196    0.836873    -0.23192   0.0496783    0.921636   -0.305225    -0.125462   -0.609364  -0.0733404  -0.050779    0.0446323   0.605741    0.590437     0.88827    0.857754    0.855432    0.396608    0.660708  -0.0820828    0.912318   -0.0845484  -0.144962    0.74123 -0.0487893    -0.394173   -0.148549    0.986671  -0.0297602    0.255683    0.256799 -0.0137146   -0.565644   -0.353908   0.058833  -0.925665  -0.242347   0.844853   -0.357403    0.625213    0.740216     0.469439    -0.876342   -0.779341  -0.0841621    0.819809   -0.488101  -0.0931142  -0.905632   -0.817958  -0.0474384    0.398349   -0.587191   -0.748101    0.868098   0.931512    0.413344    0.270018    0.454844   -0.971467  0.0238539   0.749921   0.885224   -0.503011    0.832042  -0.822778   -0.259427    0.679812    0.737787    0.862011  0.0939367    0.638898    0.038103   0.0213248   -0.341973   0.964921    0.991791    0.55109    -0.942629    0.623742   -0.542768    0.474235  -0.0291739 -0.00337261    0.124085  -0.879424   -0.508228  -0.0929666   0.360346     0.510076   0.642879   -0.901728   -0.581793      0.51449   -0.385595  -0.0885897   -0.556082   -0.544037    0.397748    0.495999  -0.469594  -0.214334   -0.793027    0.982296  -0.804492    0.662399  -0.589283  -0.953612     0.215191    0.221025    0.832754  -0.616126   0.692733    -0.214425   0.467982   -0.31743   -0.456078     0.301379  -0.443887     0.640119   -0.732054  -0.775684    0.709238  -0.157799   0.199286     0.562254    -0.98882   -0.0989422    0.356609     0.046519    0.0838187   -0.748411     0.544005    0.887357     0.09505   0.393764    0.442156    0.379512   -0.410786    0.868456    0.907851  -0.647291    0.751924    0.25338    0.764642   0.367831    0.565422   -0.579767    0.563553   -0.638364  -0.234362   0.899918   -0.680689  -0.639548   -0.864909  -0.545352   -0.931255   -0.636069    -0.55395   -0.655327   -0.616393  -0.300838    0.302531    -0.795486    0.741265    0.830588   -0.130876  -0.896179    0.614702    0.161427  -0.804685    -0.74941   0.692442   -0.264682   -0.140423   0.479526   -0.907963    0.487454    0.436083  -0.830493   -0.166945   -0.456942   0.316956   -0.339757   -0.121759   -0.264057  -0.0967915     0.211663    0.872317   -0.675987   -0.730473   -0.693568  -0.843764    0.879832    0.276655    0.304028   -0.774539  -0.830602   -0.978678   -0.379617  -0.320074   -0.305993      0.31104     -0.0845     0.870459    0.283937    0.707854     0.89546   -0.156789   -0.477203    0.348938     0.531089    0.293565     0.600593   -0.763931  -0.943617   0.0163291  -0.112854   0.260364   -0.383945   -0.450156   -0.848556    0.145013    0.984351    0.384203   -0.293753  -0.547783  0.0722526   0.700859     0.81284    0.921747  -0.376419    0.137736   -0.997259   0.314546   0.951684   -0.825035   -0.100625   -0.998055    0.311496    -0.996614    0.898758   -0.919781   -0.477967  -0.0900128   0.529929   0.337488    -0.846733   -0.943347   0.823532  -0.902105    -0.78319  -0.317489  -0.794435   0.0214485   -0.424528      -0.6017    0.774094   -0.370224    0.843495   -0.498651    0.48131  -0.313813   -0.654716    0.124209    0.831577   0.297099   -0.553838    -0.537541    -0.780013    0.379078    -0.199899    0.966018   -0.595379   -0.769746     0.339143   0.903025      0.90958   0.0100988     0.643916    -0.97708   0.416013  -0.555745    -0.514498   -0.434185   -0.715178    -0.88315    0.441366  -0.831895   -0.512008   -0.761357   0.839585   0.218477   -0.65688    0.945846    0.685179    -0.51801    0.377801   -0.487014     0.74867   -0.112431    -0.1708    0.299292     0.426273   -0.940004    0.481745    0.978291    0.900244     0.97139     0.65888  -0.170755     0.08426   -0.491517    0.433949    0.598604   -0.610239    -0.638384   -0.975109   -0.234553    -0.630459  -0.955999   -0.274779    0.240531    -0.63841  -0.412436   0.193073    0.202577    0.490726   -0.715875   0.122545   -0.792018   -0.447263   -0.475341     0.780991   -0.974092   -0.910801    0.303509   0.532215  -0.113347   -0.865571   -0.557105    0.181431 ⎥
⎢    -0.28912    0.927161    0.581512    0.806358   -0.450928   0.415073   -0.621673     0.569036    0.919519    -0.55818    0.906633     0.252073  -0.0232915   -0.979102  -0.795541    0.380381    0.370916    0.260436 -0.00839233  -0.0533113    0.798124   -0.436474   -0.496273   0.262182    0.306735 -0.0881053 0.00351906   -0.831424   -0.29335     0.34911   -0.355347    0.395988    0.239039    0.983232     0.83388    -0.28239    0.721478    0.667671 -0.0210644    0.153287    0.383581   0.416994  -0.0203315   0.0845801  -0.807132    0.776537   -0.620923   0.927935   0.441792    0.654132     0.942797     -0.79248    -0.306988   -0.568058    -0.30636   -0.806599   0.418685   0.101944    0.857878   -0.801131   0.406999   0.509269   0.210689    0.592051  -0.255627   -0.332332   -0.314998    0.842572    0.639098   -0.198096  -0.189669   -0.932649    0.634126   -0.428439    0.72367    0.158785      0.21568     -0.9852    0.487952    -0.2372   -0.946643   -0.663032    0.660748    0.291857   -0.672162    0.533399   -0.919146    0.991256   0.306139    -0.841654   -0.0480194   0.622309   -0.513109    0.378274    0.801947     0.71481    0.0755272    0.212142    0.696021     0.57343   -0.526316    0.664508  -0.842449  -0.803249   -0.63855   -0.571805   -0.374418     -0.29672  -0.450446    0.137277    0.168831   0.865051   -0.410835   0.963168   0.471767   0.710213    0.213957    0.356628    0.488521   0.497266  -0.297539    0.649933    -0.128236   0.0517143     0.474801    0.577781   0.548221  -0.0717241  -0.0376769     0.812428    0.83581    0.119946     0.510491   0.820071    0.667177   -0.723692     0.156088   -0.559104   -0.112173  -0.532729  -0.0783455    0.165293  -0.458424    0.599332     0.526631    0.509016    0.226479    0.848618   -0.777655    0.270515     0.035444    -0.51582    0.683098   0.296345   -0.597989    0.247735    0.382059   0.419514  -0.881201  -0.0081858   0.722906   -0.377096    0.792676    0.749168    0.232278   -0.791979    0.722609    0.106205  -0.436265    0.251001   0.0901572   -0.600559    0.362402    -0.82714   -0.967224   -0.164567   0.0638235   0.572333   -0.239793    0.494101   -0.683968    0.204324    0.855446   0.275629    0.843587    0.633558   -0.177677    -0.540864   -0.291316    0.0364077   -0.338017   0.818502  -0.399162   0.871558      0.98178   -0.645273   -0.403471    -0.875943    0.519565   -0.210791    -0.404638    0.691087     0.988507   -0.284702    0.698505   -0.370133    0.928151   0.751249   -0.180851   -0.457065    0.203192    0.191254   0.152428  0.0596077    -0.62811    0.200391   -0.940947    0.782351  0.0337983     0.105325     0.454182   -0.784452   -0.364242    0.694404   -0.28675   -0.267605   0.424026   -0.409433   -0.934842  -0.334182   -0.670823   -0.914867   -0.559967   0.463479    0.770411    0.84918    0.802616  -0.417194     0.748457   -0.604025  -0.0575682     0.23798  -0.0748053    0.600895    0.355248   -0.443036    0.521369    0.262126    0.862317     0.293646     0.502479   -0.127791    0.312446   -0.099577   0.775204   -0.107957   -0.200148   -0.347238    0.42827    0.597105   -0.500455     0.550061  -0.0684897  -0.820408  0.0770247      0.46774    0.307716  -0.445985  -0.910061   -0.928506  -0.0399503   -0.476307   0.158725   -0.298185  -0.318869   -0.902072    0.111169    0.793229   -0.462335   -0.481137    0.966444   -0.354534    -0.99188   -0.658061   -0.696391  -0.628885  -0.0873138     0.213334     0.808303     -0.46302     0.97208    0.914749     0.36782   0.927063    -0.62921   0.0915856   -0.813057   -0.175275 -0.0565615    -0.874896    0.277258    0.269877    0.433212    0.355915  -0.472235   -0.365962   -0.459127     0.934298    0.811363   -0.974888    -0.454368 -0.00560284   -0.526888  -0.0214249    0.421102   -0.890303     -0.97729      -0.8487      0.79882  -0.331867    0.262234   -0.838548  -0.643298  -0.0571269    -0.972566    0.213234     0.32124   -0.411031   -0.498234   -0.659219   -0.614308   0.042636   0.338691    0.802853    -0.518573    -0.28097   -0.313358    0.977661   -0.781108    0.105651   -0.538161   -0.515986    0.489598  -0.827261   -0.172363   -0.155827   0.504693    0.287711    -0.40157    0.313029    0.347799    -0.697897   -0.253893   -0.703084   0.491699    -0.462343  -0.482685    -0.94968   -0.833671   -0.280269    0.208371    -0.781832   -0.767201  -0.722612   0.929991     0.592995      0.93532   0.782134  -0.187158    0.653809    0.910409   0.0259304    0.429172  -0.717397   0.766385    0.10635   -0.634214   -0.414538      0.8892  -0.586782    0.558529    0.419177   0.783248    0.335216    0.485791   -0.927781    0.914116    0.613187   0.587253    0.768755    0.453151    0.885421   -0.544728    0.306472   -0.287643   -0.782598    0.972334    0.457447    0.0871027   -0.533799   0.431473    0.114443   -0.273293    -0.388065    0.331753   0.0154248   -0.108327    -0.829441    0.370866     0.854253    0.928417    -0.614747    0.530275   -0.481047    0.769042   -0.85861    -0.926124   -0.309922  -0.0992618    -0.34654    0.361261    0.652252    0.908352    0.749719   -0.267764       0.6305   -0.201578  -0.0335664   -0.334319    0.0402064    0.895372    -0.29035   0.0106897     0.117095    0.416256    0.568538   -0.802854    0.579163     0.904037   -0.939861    -0.91371   0.729128   0.238117   -0.760482  -0.515042   -0.957962   -0.098998    0.706263   -0.962807   -0.707736    -0.548383   -0.378305     0.86055   0.865579    -0.355632   0.828003   0.0785512    0.483795   -0.493859    0.701744    0.349263    0.134951    0.353878    0.620658    -0.455045   0.819906  -0.603436   0.855352    -0.544178    0.767575    0.086614    0.426285   -0.294685   -0.520046   0.276828  -0.0734226    -0.17704   0.981765   0.431759  -0.297728   -0.65135   0.0647676    0.761748   -0.734743     0.652702     0.139032   -0.251575    0.257587   -0.289287   -0.979479   -0.931486   -0.91945   -0.898158    0.187099   -0.275575    0.738527    0.750273    -0.58891  -0.733433   -0.778805     0.31497   -0.385546   -0.299194  -0.457561   -0.97097   0.845731   -0.118171    0.468474   0.590244   -0.623236    0.613999    0.733041   -0.695446   0.147059    0.277484   -0.973344   -0.857861    0.548233  -0.332647    0.861137   0.799447     0.612627  -0.0100976   -0.982283   -0.392771   -0.549248     0.94681    0.349452  -0.126904   -0.728848   -0.230264   -0.60902    -0.862222    0.37061    0.545823    0.201536    -0.279701   -0.788647   -0.191011   -0.193037   -0.698276    0.115669   -0.749735   0.633722    0.60343   -0.619392   -0.575522  -0.633964   0.0552741   -0.81468   0.649511    0.0376992   -0.484919    0.933012   0.128502   0.187948    -0.767258   0.363441   0.509848   -0.456558    -0.163473  -0.613211    -0.185856    0.871073   0.568717    0.330026   0.831897   0.693463     0.446919    0.867121    -0.281415    0.650099     0.993409    0.0487685    -0.25386    -0.845051   -0.365068  -0.0120099  -0.943222    0.738664 -0.00980955    0.101164   -0.274326  -0.0105114  -0.515067    -0.21858  -0.254848   -0.227326  -0.211753    0.282756   -0.894313    0.876754    0.207968  -0.810692   0.329893    0.707118  -0.753802   -0.217344   -0.89049    0.888283    0.261001    0.685634   -0.119693   -0.349582  -0.201759  -0.0247825    -0.903797     0.77271   0.0868585   -0.837334   0.428157    0.174334   -0.118603  -0.705782     0.91115   0.265626   -0.885953    0.959044  -0.826049   -0.211735  -0.0880028   -0.423129  0.0530845    0.574799   -0.606464   0.191287    -0.42697   -0.493841    0.874066  -0.0279172      0.34252   -0.168947    0.962057   -0.165578   -0.955902   -0.62282    0.443988    0.754416   -0.735895   -0.539355   0.121993   -0.042301    0.281772   0.632678   -0.733889     0.609489    0.598637    -0.833965   -0.983574   -0.362629   -0.207566    0.722443    0.618779    0.507497     0.490467    0.748879    -0.561251   -0.593421   0.437707    0.542501  -0.310428  -0.575437     0.63217   -0.538103   -0.179089    0.865955    0.795083   -0.424547    0.513664  0.0452471    0.50883   0.545663   -0.510518   -0.526021  -0.434315   -0.214982    0.284273  0.0563993   -0.50194    0.334076     0.97618    0.458516   -0.107356     0.076822     0.54564     0.17659    0.943123   -0.621634   0.948006  -0.364518     0.583748    0.838477    0.50776  -0.604569   -0.757595  -0.440742  -0.338461     0.93861   -0.812077    -0.548071   -0.499059  -0.0703394    0.581047   -0.237454  -0.100416   -0.45511   -0.039703   -0.988135   -0.497575   0.560725    -0.32402     0.264832    -0.262257   -0.691219     0.990059    0.651746   -0.290915   -0.166147     0.794164  -0.483337      0.46192   -0.831045    -0.128551    0.910579  -0.973075  -0.328811    -0.862523   -0.461111    0.293235    0.651012   -0.966399  -0.387247   -0.503022    0.304439  -0.415121   0.521592  -0.684276   -0.126466   -0.453146    0.906885    0.613059   -0.244755   -0.880449   -0.855819   0.299567    0.862554    -0.180763    0.802628  -0.0962414    0.934222   -0.655409   -0.227096    0.484411  -0.460847    0.288635     0.74115   -0.533812    0.351938    0.981523      0.99864   0.0638952   -0.349846    -0.888278  -0.777237   -0.993545    0.847858    0.356095   0.415547   0.820652    0.449887    0.802858   -0.126173   0.970399   -0.218661   -0.565448    0.536936    -0.642645    0.413702    0.583921   -0.877067   0.100423  -0.739277    0.507888  -0.0513025   0.0489007 ⎥
⎢     0.61115   -0.346726    -0.90045    0.970354 -0.00783199  -0.132331    0.164246    0.0887694    0.235861    0.048872   -0.355292     -0.61622    0.793553    0.769255  -0.744963    0.156209   -0.416462  0.00302804    0.273022    0.160004   -0.284094    0.226348     0.82959    0.70502    0.831674  -0.814905  -0.883768   -0.219179  -0.573191   -0.447102   -0.286997   -0.345029    0.427638   -0.561885   -0.964507   -0.455543    0.137309    0.321993  -0.269508   -0.521607    0.884948 -0.0277137   -0.208472    0.368714   -0.57135   -0.347079    0.206018   0.657835   0.193582    -0.97775     0.618654    -0.926094    -0.873749   0.0164058   -0.656188   -0.379241  -0.365654   -0.46099   -0.760477   -0.528548   0.135346 0.00570977   0.794332    0.752018  -0.313017  -0.0942859   -0.589257    0.167695   -0.543014     0.98426    0.28199    0.314232    -0.25177    0.348944   0.354187   -0.461578     0.705637    0.118662  0.00329494  -0.106631    -0.27849   -0.324561    0.470392  -0.0723662    0.121679   -0.127725   -0.157863   -0.907539   0.254854     0.724015    -0.361849 -0.0540729    0.238794    0.183166  -0.0442718     0.76435   0.00500607   -0.176924    0.465873   -0.834708   -0.348696   -0.511755   0.418749 -0.0526793 -0.0573003   -0.176607   -0.135951     0.255178   0.868659    -0.89189    0.777609  -0.225532   -0.679521   0.687496   0.601359  -0.770293   -0.367971    0.485494   -0.321126  -0.348303   0.750491   -0.120456     0.265852    0.372363    -0.726706    0.229238   0.944972   -0.212159  -0.0892541    -0.102279  -0.693392    0.762856     0.395787  -0.824812   -0.989739    0.150392     0.639647   -0.788924    -0.80429  -0.608611    0.478743   -0.443129  -0.132171    0.903451    -0.665066    0.596643   -0.166878   -0.935961    -0.77446   -0.765527    -0.778949   -0.510994    0.985634  -0.695992   -0.968156   -0.838572    0.867402  -0.631565  -0.298539   -0.858629  -0.685048   -0.269216    0.697743   -0.443976    0.266767   -0.366606     0.61611    0.161311   0.831993   -0.950812    0.874959   0.0454862   -0.436492    0.141849    0.694358    0.308573   -0.255391    0.62231   -0.970093    0.129905    0.422677   -0.636433   -0.825368  -0.631434   -0.681603    0.435448  -0.0965201    -0.570577   -0.604587   -0.0489405   -0.170731  -0.981057   0.513889   0.303741     0.162614   -0.161548    0.272992     0.317159    0.806144   -0.919314     -0.42012   -0.276091     0.476306    -0.13497   -0.034404     0.96467    0.212348   0.371403   -0.351467   -0.501101   -0.847724   -0.665692   -0.10907  -0.586171    0.720306   -0.610983    0.420202    0.870249  -0.624703     0.170331     0.689322   -0.223841    0.505028   -0.105145   0.758049  -0.0522823  -0.646328   -0.350128   -0.234365  -0.440061   -0.494542    0.407413   -0.302461   -0.32382   -0.289952   -0.70761    0.052581   0.960496     0.715777   -0.488653   -0.579491    0.669722   -0.420029    0.688976   -0.227734  -0.0883213   -0.273563    0.901767   -0.377833    -0.949351     -0.77923    0.815176    -0.10069    0.128857  -0.670624   -0.149064    0.488993    0.759835  -0.692359   -0.173306      0.5051     0.657591    0.137495   0.200243  -0.822193    -0.554965   -0.212335   0.369942    0.44136    0.552739   -0.758596      0.1063   0.353404     0.67627  -0.495491    -0.14589   -0.230814    0.469367    0.232062    0.520156  -0.0390626    0.681454   -0.282151    -0.62099   -0.568178  -0.716262   -0.635808     0.190975    -0.203933     0.326831  -0.0862308    0.267639   0.0226024  -0.655406    0.555119    0.805932   -0.237194   -0.340251  -0.992701    -0.455625   -0.550075     0.86979    0.578668   -0.607517  -0.565596   -0.464194    0.817824     0.868012     0.64252    0.185372    -0.179858    -0.49294    0.326809   -0.452523     0.27414    0.904891     0.975263    -0.377457     0.939659    0.26384    0.574641   -0.162226  -0.112459    0.102217     0.684492   -0.948526   -0.402956    0.261199   -0.157755   -0.749001   -0.494032  -0.678736  -0.206608    0.911706    -0.293371   -0.869346   -0.228145    -0.66808    0.890886   -0.635907   -0.788401   -0.280187  -0.0864629    0.16942    0.123117    0.175981   0.632932    0.192629    0.365806    0.169766    0.386767     0.468035   -0.760653   -0.737435  -0.304072     0.621353   0.669944   -0.121026   -0.268718   -0.214223    -0.32084     0.122291   -0.843352   0.295299  -0.361399    -0.534562    -0.567473   0.591202   0.448143    0.326827   -0.307622    0.954503    -0.39627  -0.214625   0.628888   0.157871   -0.977537    -0.79297    -0.31552 -0.0126862    0.115406   -0.372727  -0.888106    0.016763   -0.462662    0.974751   -0.374934    0.135889   0.993022   -0.989668     0.82793   -0.953768    0.347846    0.853102   -0.732926   -0.495876    0.566676    0.956169    -0.350945  -0.0487465   0.645466    0.821987   -0.174882    -0.689305     0.33658    0.150343    0.452575    -0.300991   -0.948038 -0.000873566    0.642659     -0.91148   -0.188378    0.370191   0.0797199    0.60653   0.00133371   -0.237594    0.830465    0.442236   -0.146296    0.660653   -0.284402    0.473604   -0.133843     0.518749   0.0106694     0.30236   -0.988269     0.680361   0.0768112    0.612487    0.708209     0.829488   -0.167494   -0.297123     0.68964    0.391742     0.799317   -0.648942  0.00687754  0.0194198  -0.204086    0.345597 -0.0980485    0.121228    0.718538  -0.0726654     0.50267    -0.23147      0.56558    0.841758  -0.0664476  -0.705969    -0.593222  -0.849909    0.632708    0.927519   0.0822531   -0.957387   -0.387815    0.917572     0.95745   -0.488968   -0.0462884  -0.760645  -0.695155  -0.888592     0.586852    0.874919   -0.259975    0.105799   -0.839596   -0.923646   0.879122     0.10429   -0.979533  -0.498871  -0.477222   0.244358  -0.501398    0.231712   -0.850259    0.246568    -0.513266    -0.673341   -0.278369    0.205721   -0.213158    0.642298    0.685781  -0.379389   -0.236053   -0.682713   -0.656566    0.945654     0.57974     0.68929  -0.836361   -0.419484   -0.174175  -0.0656719   -0.974359  -0.809857  -0.411236  -0.493017    0.412509   -0.674567  -0.539941   0.0474913    0.908418    0.627438   -0.545773    0.81768   -0.317659    0.544448    0.042201    -0.71276   0.324662   0.0992756   0.888066    -0.340666   -0.189896    -0.94298   -0.320679    -0.68039  -0.0274479   -0.338389   0.752417   -0.481778   -0.519008   0.449875    -0.194221   0.214621    0.405014   -0.858589     0.130131    0.955536    0.502132    0.924421   -0.441979    0.926067   0.0287576   0.534509  -0.885327    0.555433   -0.950161  -0.147491    0.728662   0.598873  -0.671002    -0.777631   -0.833268    0.881468   0.736463  -0.447147    -0.259192  -0.908371  -0.738051   -0.726981    -0.633781  -0.186807     0.455953    0.405857  -0.358563   -0.686501  -0.144445  -0.445058    0.0874084    0.886909    -0.896183   -0.467164     0.786335   -0.0583166   -0.880538      0.68257   -0.112921   -0.141897   0.230578   -0.330159    0.609278   -0.972147    0.951248    0.630296  -0.750623    0.355536  0.0979527    0.984265  -0.898393    0.928072    0.452205    0.898208    0.344183  -0.292961 -0.0569445   -0.251916   0.288668   -0.903611  -0.981381    0.783423    0.275103   -0.710419    0.590067    0.708059   0.752035    0.146807     0.458891   -0.687316    0.704857    0.243647   0.462755     0.37867    0.487467 -0.0215642    0.513331  0.0811648   -0.221174     -0.1558  -0.515073   -0.574949  -0.0668836   -0.160093 -0.0296094   -0.764314   -0.387826   0.645475    0.964066    0.889305   -0.163657    -0.43466    -0.190392    0.849246   -0.132084   -0.497033    0.141266  0.0305493   -0.649401    0.994621   0.0639511   0.0538774  -0.656633     0.33449   -0.192065  -0.105126   -0.458218    -0.777245   -0.654123     0.405932    0.671588    0.252505   -0.757466   -0.885313    0.175106    0.885775    -0.552661    0.576732    -0.879496   -0.468218  -0.741397   0.0439731  -0.528284  -0.244981    0.303896   -0.533584   -0.946673  -0.0208526   -0.789971    0.532499    0.765615 -0.0115465   0.781381  -0.154795   0.0150986   -0.312019   0.860128    0.585322       0.283   0.725816  -0.328554   -0.194351  -0.0948887   -0.567674    0.671981     0.972813    0.955363   -0.988092    0.689016   -0.796315  -0.231969  -0.446506  -0.00237477    -0.99681   0.931684  -0.813108   -0.792723  0.0410261   0.629031    0.771519   -0.127532    -0.198476   -0.063708   -0.884293   -0.386118   -0.781831  -0.233676   0.704214    0.826932    0.316478   -0.498821   -0.96307  -0.0223417    -0.689846    -0.652026   -0.715726    -0.572972    0.968396   -0.350326   -0.955402     0.899807   0.672732     0.478423    0.938377    -0.853292  -0.0530117   0.436061  -0.967606     -0.46912     0.15142    0.610294   -0.104046    0.881969   0.201555   -0.758373    -0.75248   0.196733   0.546704   0.704503   -0.853039    -0.41224   -0.240676    0.244443   -0.681056   -0.412779    0.969075   0.777639    0.079832     0.555342   -0.550998   -0.207607    -0.39645 -0.00257975   -0.745761     -0.9044   -0.59265 -0.00993919   -0.734686    0.144772   -0.349398    0.196816     0.987498    0.251161    0.357249     0.599329   0.171066   -0.647019   -0.585673   0.0696014   0.528805   -0.11471   -0.376938   -0.352245    0.907604   0.491193    0.822221   -0.505612   -0.439744     0.179924    0.590523   -0.779188    0.457905  -0.659221   0.531674    0.505369   -0.975292    0.575633 ⎥
